digraph Tree {
node [shape=box] ;
0 [label="X[4] <= 0.284\nentropy = 0.975\nsamples = 3027\nvalue = [2831, 1952]"] ;
1 [label="X[1] <= 0.692\nentropy = 0.638\nsamples = 950\nvalue = [243, 1261]"] ;
0 -> 1 [labeldistance=2.5, labelangle=45, headlabel="True"] ;
2 [label="X[5] <= 0.252\nentropy = 0.713\nsamples = 547\nvalue = [174, 716]"] ;
1 -> 2 ;
3 [label="X[5] <= 0.004\nentropy = 0.764\nsamples = 478\nvalue = [172, 602]"] ;
2 -> 3 ;
4 [label="entropy = 0.0\nsamples = 10\nvalue = [0, 18]"] ;
3 -> 4 ;
5 [label="X[1] <= 0.665\nentropy = 0.774\nsamples = 468\nvalue = [172, 584]"] ;
3 -> 5 ;
6 [label="X[2] <= 0.016\nentropy = 0.684\nsamples = 403\nvalue = [118, 531]"] ;
5 -> 6 ;
7 [label="X[4] <= 0.198\nentropy = 0.499\nsamples = 206\nvalue = [35, 284]"] ;
6 -> 7 ;
8 [label="X[2] <= 0.01\nentropy = 0.318\nsamples = 103\nvalue = [9, 147]"] ;
7 -> 8 ;
9 [label="X[0] <= 0.5\nentropy = 0.183\nsamples = 65\nvalue = [3, 105]"] ;
8 -> 9 ;
10 [label="entropy = 0.0\nsamples = 51\nvalue = [0, 84]"] ;
9 -> 10 ;
11 [label="X[1] <= 0.012\nentropy = 0.544\nsamples = 14\nvalue = [3, 21]"] ;
9 -> 11 ;
12 [label="X[4] <= 0.123\nentropy = 1.0\nsamples = 3\nvalue = [3, 3]"] ;
11 -> 12 ;
13 [label="entropy = 0.0\nsamples = 1\nvalue = [3, 0]"] ;
12 -> 13 ;
14 [label="entropy = 0.0\nsamples = 2\nvalue = [0, 3]"] ;
12 -> 14 ;
15 [label="entropy = 0.0\nsamples = 11\nvalue = [0, 18]"] ;
11 -> 15 ;
16 [label="X[6] <= 0.352\nentropy = 0.544\nsamples = 38\nvalue = [6, 42]"] ;
8 -> 16 ;
17 [label="entropy = 0.0\nsamples = 12\nvalue = [0, 13]"] ;
16 -> 17 ;
18 [label="X[4] <= 0.085\nentropy = 0.661\nsamples = 26\nvalue = [6, 29]"] ;
16 -> 18 ;
19 [label="entropy = 0.0\nsamples = 5\nvalue = [0, 8]"] ;
18 -> 19 ;
20 [label="X[3] <= 0.473\nentropy = 0.764\nsamples = 21\nvalue = [6, 21]"] ;
18 -> 20 ;
21 [label="X[6] <= 0.429\nentropy = 1.0\nsamples = 8\nvalue = [5, 5]"] ;
20 -> 21 ;
22 [label="X[2] <= 0.012\nentropy = 0.954\nsamples = 6\nvalue = [3, 5]"] ;
21 -> 22 ;
23 [label="X[6] <= 0.421\nentropy = 0.811\nsamples = 3\nvalue = [3, 1]"] ;
22 -> 23 ;
24 [label="entropy = 0.0\nsamples = 2\nvalue = [3, 0]"] ;
23 -> 24 ;
25 [label="entropy = 0.0\nsamples = 1\nvalue = [0, 1]"] ;
23 -> 25 ;
26 [label="entropy = 0.0\nsamples = 3\nvalue = [0, 4]"] ;
22 -> 26 ;
27 [label="entropy = 0.0\nsamples = 2\nvalue = [2, 0]"] ;
21 -> 27 ;
28 [label="X[5] <= 0.031\nentropy = 0.323\nsamples = 13\nvalue = [1, 16]"] ;
20 -> 28 ;
29 [label="entropy = 0.0\nsamples = 1\nvalue = [1, 0]"] ;
28 -> 29 ;
30 [label="entropy = 0.0\nsamples = 12\nvalue = [0, 16]"] ;
28 -> 30 ;
31 [label="X[2] <= 0.016\nentropy = 0.633\nsamples = 103\nvalue = [26, 137]"] ;
7 -> 31 ;
32 [label="X[3] <= 0.377\nentropy = 0.665\nsamples = 93\nvalue = [26, 124]"] ;
31 -> 32 ;
33 [label="entropy = 0.0\nsamples = 19\nvalue = [0, 33]"] ;
32 -> 33 ;
34 [label="X[5] <= 0.041\nentropy = 0.764\nsamples = 74\nvalue = [26, 91]"] ;
32 -> 34 ;
35 [label="X[5] <= 0.039\nentropy = 0.994\nsamples = 14\nvalue = [10, 12]"] ;
34 -> 35 ;
36 [label="X[1] <= 0.506\nentropy = 0.949\nsamples = 13\nvalue = [7, 12]"] ;
35 -> 36 ;
37 [label="entropy = 0.0\nsamples = 3\nvalue = [4, 0]"] ;
36 -> 37 ;
38 [label="X[3] <= 0.495\nentropy = 0.722\nsamples = 10\nvalue = [3, 12]"] ;
36 -> 38 ;
39 [label="entropy = 0.0\nsamples = 5\nvalue = [0, 8]"] ;
38 -> 39 ;
40 [label="X[5] <= 0.02\nentropy = 0.985\nsamples = 5\nvalue = [3, 4]"] ;
38 -> 40 ;
41 [label="entropy = 0.0\nsamples = 1\nvalue = [0, 2]"] ;
40 -> 41 ;
42 [label="X[6] <= 0.36\nentropy = 0.971\nsamples = 4\nvalue = [3, 2]"] ;
40 -> 42 ;
43 [label="entropy = 0.0\nsamples = 1\nvalue = [0, 2]"] ;
42 -> 43 ;
44 [label="entropy = 0.0\nsamples = 3\nvalue = [3, 0]"] ;
42 -> 44 ;
45 [label="entropy = 0.0\nsamples = 1\nvalue = [3, 0]"] ;
35 -> 45 ;
46 [label="X[2] <= 0.0\nentropy = 0.654\nsamples = 60\nvalue = [16, 79]"] ;
34 -> 46 ;
47 [label="X[1] <= 0.006\nentropy = 0.918\nsamples = 3\nvalue = [2, 1]"] ;
46 -> 47 ;
48 [label="entropy = 0.0\nsamples = 1\nvalue = [0, 1]"] ;
47 -> 48 ;
49 [label="entropy = 0.0\nsamples = 2\nvalue = [2, 0]"] ;
47 -> 49 ;
50 [label="X[2] <= 0.007\nentropy = 0.615\nsamples = 57\nvalue = [14, 78]"] ;
46 -> 50 ;
51 [label="entropy = 0.0\nsamples = 15\nvalue = [0, 24]"] ;
50 -> 51 ;
52 [label="X[1] <= 0.509\nentropy = 0.734\nsamples = 42\nvalue = [14, 54]"] ;
50 -> 52 ;
53 [label="X[6] <= 0.353\nentropy = 0.993\nsamples = 14\nvalue = [9, 11]"] ;
52 -> 53 ;
54 [label="entropy = 0.0\nsamples = 3\nvalue = [4, 0]"] ;
53 -> 54 ;
55 [label="X[4] <= 0.255\nentropy = 0.896\nsamples = 11\nvalue = [5, 11]"] ;
53 -> 55 ;
56 [label="X[2] <= 0.014\nentropy = 0.469\nsamples = 7\nvalue = [1, 9]"] ;
55 -> 56 ;
57 [label="entropy = 0.0\nsamples = 5\nvalue = [0, 8]"] ;
56 -> 57 ;
58 [label="X[1] <= 0.26\nentropy = 1.0\nsamples = 2\nvalue = [1, 1]"] ;
56 -> 58 ;
59 [label="entropy = 0.0\nsamples = 1\nvalue = [0, 1]"] ;
58 -> 59 ;
60 [label="entropy = 0.0\nsamples = 1\nvalue = [1, 0]"] ;
58 -> 60 ;
61 [label="X[6] <= 0.36\nentropy = 0.918\nsamples = 4\nvalue = [4, 2]"] ;
55 -> 61 ;
62 [label="entropy = 0.0\nsamples = 2\nvalue = [0, 2]"] ;
61 -> 62 ;
63 [label="entropy = 0.0\nsamples = 2\nvalue = [4, 0]"] ;
61 -> 63 ;
64 [label="X[0] <= 0.5\nentropy = 0.482\nsamples = 28\nvalue = [5, 43]"] ;
52 -> 64 ;
65 [label="X[1] <= 0.571\nentropy = 0.602\nsamples = 22\nvalue = [5, 29]"] ;
64 -> 65 ;
66 [label="entropy = 0.0\nsamples = 6\nvalue = [0, 10]"] ;
65 -> 66 ;
67 [label="X[2] <= 0.009\nentropy = 0.738\nsamples = 16\nvalue = [5, 19]"] ;
65 -> 67 ;
68 [label="X[4] <= 0.226\nentropy = 0.811\nsamples = 3\nvalue = [3, 1]"] ;
67 -> 68 ;
69 [label="entropy = 0.0\nsamples = 1\nvalue = [0, 1]"] ;
68 -> 69 ;
70 [label="entropy = 0.0\nsamples = 2\nvalue = [3, 0]"] ;
68 -> 70 ;
71 [label="X[6] <= 0.355\nentropy = 0.469\nsamples = 13\nvalue = [2, 18]"] ;
67 -> 71 ;
72 [label="entropy = 0.0\nsamples = 8\nvalue = [0, 13]"] ;
71 -> 72 ;
73 [label="X[5] <= 0.169\nentropy = 0.863\nsamples = 5\nvalue = [2, 5]"] ;
71 -> 73 ;
74 [label="X[1] <= 0.645\nentropy = 0.65\nsamples = 4\nvalue = [1, 5]"] ;
73 -> 74 ;
75 [label="entropy = 0.0\nsamples = 3\nvalue = [0, 5]"] ;
74 -> 75 ;
76 [label="entropy = 0.0\nsamples = 1\nvalue = [1, 0]"] ;
74 -> 76 ;
77 [label="entropy = 0.0\nsamples = 1\nvalue = [1, 0]"] ;
73 -> 77 ;
78 [label="entropy = 0.0\nsamples = 6\nvalue = [0, 14]"] ;
64 -> 78 ;
79 [label="entropy = 0.0\nsamples = 10\nvalue = [0, 13]"] ;
31 -> 79 ;
80 [label="X[2] <= 0.016\nentropy = 0.814\nsamples = 197\nvalue = [83, 247]"] ;
6 -> 80 ;
81 [label="entropy = 0.0\nsamples = 2\nvalue = [4, 0]"] ;
80 -> 81 ;
82 [label="X[5] <= 0.25\nentropy = 0.799\nsamples = 195\nvalue = [79, 247]"] ;
80 -> 82 ;
83 [label="X[6] <= 0.437\nentropy = 0.791\nsamples = 194\nvalue = [77, 247]"] ;
82 -> 83 ;
84 [label="X[6] <= 0.373\nentropy = 0.816\nsamples = 183\nvalue = [77, 227]"] ;
83 -> 84 ;
85 [label="X[6] <= 0.358\nentropy = 0.744\nsamples = 107\nvalue = [38, 142]"] ;
84 -> 85 ;
86 [label="X[1] <= 0.098\nentropy = 0.843\nsamples = 71\nvalue = [32, 86]"] ;
85 -> 86 ;
87 [label="entropy = 0.0\nsamples = 13\nvalue = [0, 24]"] ;
86 -> 87 ;
88 [label="X[3] <= 0.682\nentropy = 0.925\nsamples = 58\nvalue = [32, 62]"] ;
86 -> 88 ;
89 [label="X[2] <= 0.023\nentropy = 0.835\nsamples = 48\nvalue = [21, 58]"] ;
88 -> 89 ;
90 [label="X[1] <= 0.65\nentropy = 0.974\nsamples = 24\nvalue = [15, 22]"] ;
89 -> 90 ;
91 [label="X[1] <= 0.617\nentropy = 0.994\nsamples = 20\nvalue = [15, 18]"] ;
90 -> 91 ;
92 [label="X[3] <= 0.495\nentropy = 0.904\nsamples = 15\nvalue = [8, 17]"] ;
91 -> 92 ;
93 [label="X[5] <= 0.058\nentropy = 0.918\nsamples = 6\nvalue = [6, 3]"] ;
92 -> 93 ;
94 [label="entropy = 0.0\nsamples = 2\nvalue = [2, 0]"] ;
93 -> 94 ;
95 [label="X[4] <= 0.236\nentropy = 0.985\nsamples = 4\nvalue = [4, 3]"] ;
93 -> 95 ;
96 [label="entropy = 0.0\nsamples = 2\nvalue = [4, 0]"] ;
95 -> 96 ;
97 [label="entropy = 0.0\nsamples = 2\nvalue = [0, 3]"] ;
95 -> 97 ;
98 [label="X[5] <= 0.115\nentropy = 0.544\nsamples = 9\nvalue = [2, 14]"] ;
92 -> 98 ;
99 [label="X[2] <= 0.019\nentropy = 0.811\nsamples = 5\nvalue = [2, 6]"] ;
98 -> 99 ;
100 [label="entropy = 0.0\nsamples = 3\nvalue = [0, 6]"] ;
99 -> 100 ;
101 [label="entropy = 0.0\nsamples = 2\nvalue = [2, 0]"] ;
99 -> 101 ;
102 [label="entropy = 0.0\nsamples = 4\nvalue = [0, 8]"] ;
98 -> 102 ;
103 [label="X[5] <= 0.181\nentropy = 0.544\nsamples = 5\nvalue = [7, 1]"] ;
91 -> 103 ;
104 [label="entropy = 0.0\nsamples = 4\nvalue = [7, 0]"] ;
103 -> 104 ;
105 [label="entropy = 0.0\nsamples = 1\nvalue = [0, 1]"] ;
103 -> 105 ;
106 [label="entropy = 0.0\nsamples = 4\nvalue = [0, 4]"] ;
90 -> 106 ;
107 [label="X[5] <= 0.119\nentropy = 0.592\nsamples = 24\nvalue = [6, 36]"] ;
89 -> 107 ;
108 [label="entropy = 0.0\nsamples = 11\nvalue = [0, 23]"] ;
107 -> 108 ;
109 [label="X[2] <= 0.026\nentropy = 0.9\nsamples = 13\nvalue = [6, 13]"] ;
107 -> 109 ;
110 [label="entropy = 0.0\nsamples = 3\nvalue = [0, 6]"] ;
109 -> 110 ;
111 [label="X[5] <= 0.205\nentropy = 0.996\nsamples = 10\nvalue = [6, 7]"] ;
109 -> 111 ;
112 [label="X[2] <= 0.067\nentropy = 0.918\nsamples = 8\nvalue = [6, 3]"] ;
111 -> 112 ;
113 [label="entropy = 0.0\nsamples = 4\nvalue = [5, 0]"] ;
112 -> 113 ;
114 [label="X[5] <= 0.184\nentropy = 0.811\nsamples = 4\nvalue = [1, 3]"] ;
112 -> 114 ;
115 [label="entropy = 0.0\nsamples = 3\nvalue = [0, 3]"] ;
114 -> 115 ;
116 [label="entropy = 0.0\nsamples = 1\nvalue = [1, 0]"] ;
114 -> 116 ;
117 [label="entropy = 0.0\nsamples = 2\nvalue = [0, 4]"] ;
111 -> 117 ;
118 [label="X[5] <= 0.094\nentropy = 0.837\nsamples = 10\nvalue = [11, 4]"] ;
88 -> 118 ;
119 [label="entropy = 0.0\nsamples = 2\nvalue = [3, 0]"] ;
118 -> 119 ;
120 [label="X[4] <= 0.255\nentropy = 0.918\nsamples = 8\nvalue = [8, 4]"] ;
118 -> 120 ;
121 [label="X[1] <= 0.656\nentropy = 0.918\nsamples = 5\nvalue = [2, 4]"] ;
120 -> 121 ;
122 [label="entropy = 0.0\nsamples = 4\nvalue = [0, 4]"] ;
121 -> 122 ;
123 [label="entropy = 0.0\nsamples = 1\nvalue = [2, 0]"] ;
121 -> 123 ;
124 [label="entropy = 0.0\nsamples = 3\nvalue = [6, 0]"] ;
120 -> 124 ;
125 [label="X[1] <= 0.098\nentropy = 0.459\nsamples = 36\nvalue = [6, 56]"] ;
85 -> 125 ;
126 [label="entropy = 0.0\nsamples = 6\nvalue = [0, 13]"] ;
125 -> 126 ;
127 [label="X[3] <= 0.495\nentropy = 0.536\nsamples = 30\nvalue = [6, 43]"] ;
125 -> 127 ;
128 [label="entropy = 0.0\nsamples = 10\nvalue = [0, 18]"] ;
127 -> 128 ;
129 [label="X[1] <= 0.553\nentropy = 0.709\nsamples = 20\nvalue = [6, 25]"] ;
127 -> 129 ;
130 [label="X[3] <= 0.6\nentropy = 1.0\nsamples = 5\nvalue = [4, 4]"] ;
129 -> 130 ;
131 [label="entropy = 0.0\nsamples = 2\nvalue = [2, 0]"] ;
130 -> 131 ;
132 [label="X[3] <= 0.65\nentropy = 0.918\nsamples = 3\nvalue = [2, 4]"] ;
130 -> 132 ;
133 [label="entropy = 0.0\nsamples = 1\nvalue = [0, 2]"] ;
132 -> 133 ;
134 [label="X[4] <= 0.132\nentropy = 1.0\nsamples = 2\nvalue = [2, 2]"] ;
132 -> 134 ;
135 [label="entropy = 0.0\nsamples = 1\nvalue = [2, 0]"] ;
134 -> 135 ;
136 [label="entropy = 0.0\nsamples = 1\nvalue = [0, 2]"] ;
134 -> 136 ;
137 [label="X[1] <= 0.661\nentropy = 0.426\nsamples = 15\nvalue = [2, 21]"] ;
129 -> 137 ;
138 [label="entropy = 0.0\nsamples = 11\nvalue = [0, 17]"] ;
137 -> 138 ;
139 [label="X[0] <= 0.5\nentropy = 0.918\nsamples = 4\nvalue = [2, 4]"] ;
137 -> 139 ;
140 [label="entropy = 0.0\nsamples = 3\nvalue = [0, 4]"] ;
139 -> 140 ;
141 [label="entropy = 0.0\nsamples = 1\nvalue = [2, 0]"] ;
139 -> 141 ;
142 [label="X[1] <= 0.591\nentropy = 0.898\nsamples = 76\nvalue = [39, 85]"] ;
84 -> 142 ;
143 [label="X[3] <= 0.414\nentropy = 0.978\nsamples = 43\nvalue = [31, 44]"] ;
142 -> 143 ;
144 [label="entropy = 0.0\nsamples = 8\nvalue = [0, 15]"] ;
143 -> 144 ;
145 [label="X[2] <= 0.022\nentropy = 0.999\nsamples = 35\nvalue = [31, 29]"] ;
143 -> 145 ;
146 [label="X[4] <= 0.198\nentropy = 0.84\nsamples = 12\nvalue = [19, 7]"] ;
145 -> 146 ;
147 [label="X[1] <= 0.55\nentropy = 0.592\nsamples = 10\nvalue = [18, 3]"] ;
146 -> 147 ;
148 [label="X[5] <= 0.125\nentropy = 0.31\nsamples = 8\nvalue = [17, 1]"] ;
147 -> 148 ;
149 [label="entropy = 0.0\nsamples = 3\nvalue = [9, 0]"] ;
148 -> 149 ;
150 [label="X[3] <= 0.455\nentropy = 0.503\nsamples = 5\nvalue = [8, 1]"] ;
148 -> 150 ;
151 [label="entropy = 0.0\nsamples = 2\nvalue = [5, 0]"] ;
150 -> 151 ;
152 [label="X[3] <= 0.468\nentropy = 0.811\nsamples = 3\nvalue = [3, 1]"] ;
150 -> 152 ;
153 [label="entropy = 0.0\nsamples = 1\nvalue = [0, 1]"] ;
152 -> 153 ;
154 [label="entropy = 0.0\nsamples = 2\nvalue = [3, 0]"] ;
152 -> 154 ;
155 [label="X[5] <= 0.129\nentropy = 0.918\nsamples = 2\nvalue = [1, 2]"] ;
147 -> 155 ;
156 [label="entropy = 0.0\nsamples = 1\nvalue = [1, 0]"] ;
155 -> 156 ;
157 [label="entropy = 0.0\nsamples = 1\nvalue = [0, 2]"] ;
155 -> 157 ;
158 [label="X[0] <= 0.5\nentropy = 0.722\nsamples = 2\nvalue = [1, 4]"] ;
146 -> 158 ;
159 [label="entropy = 0.0\nsamples = 1\nvalue = [0, 4]"] ;
158 -> 159 ;
160 [label="entropy = 0.0\nsamples = 1\nvalue = [1, 0]"] ;
158 -> 160 ;
161 [label="X[3] <= 0.514\nentropy = 0.937\nsamples = 23\nvalue = [12, 22]"] ;
145 -> 161 ;
162 [label="X[1] <= 0.086\nentropy = 0.523\nsamples = 11\nvalue = [2, 15]"] ;
161 -> 162 ;
163 [label="X[0] <= 0.5\nentropy = 1.0\nsamples = 4\nvalue = [2, 2]"] ;
162 -> 163 ;
164 [label="X[1] <= 0.08\nentropy = 0.918\nsamples = 3\nvalue = [1, 2]"] ;
163 -> 164 ;
165 [label="entropy = 0.0\nsamples = 2\nvalue = [0, 2]"] ;
164 -> 165 ;
166 [label="entropy = 0.0\nsamples = 1\nvalue = [1, 0]"] ;
164 -> 166 ;
167 [label="entropy = 0.0\nsamples = 1\nvalue = [1, 0]"] ;
163 -> 167 ;
168 [label="entropy = 0.0\nsamples = 7\nvalue = [0, 13]"] ;
162 -> 168 ;
169 [label="X[4] <= 0.274\nentropy = 0.977\nsamples = 12\nvalue = [10, 7]"] ;
161 -> 169 ;
170 [label="X[6] <= 0.415\nentropy = 0.722\nsamples = 7\nvalue = [8, 2]"] ;
169 -> 170 ;
171 [label="entropy = 0.0\nsamples = 3\nvalue = [6, 0]"] ;
170 -> 171 ;
172 [label="X[4] <= 0.16\nentropy = 1.0\nsamples = 4\nvalue = [2, 2]"] ;
170 -> 172 ;
173 [label="entropy = 0.0\nsamples = 1\nvalue = [0, 1]"] ;
172 -> 173 ;
174 [label="X[3] <= 0.564\nentropy = 0.918\nsamples = 3\nvalue = [2, 1]"] ;
172 -> 174 ;
175 [label="entropy = 0.0\nsamples = 1\nvalue = [0, 1]"] ;
174 -> 175 ;
176 [label="entropy = 0.0\nsamples = 2\nvalue = [2, 0]"] ;
174 -> 176 ;
177 [label="X[1] <= 0.153\nentropy = 0.863\nsamples = 5\nvalue = [2, 5]"] ;
169 -> 177 ;
178 [label="X[5] <= 0.171\nentropy = 0.918\nsamples = 3\nvalue = [2, 1]"] ;
177 -> 178 ;
179 [label="entropy = 0.0\nsamples = 2\nvalue = [2, 0]"] ;
178 -> 179 ;
180 [label="entropy = 0.0\nsamples = 1\nvalue = [0, 1]"] ;
178 -> 180 ;
181 [label="entropy = 0.0\nsamples = 2\nvalue = [0, 4]"] ;
177 -> 181 ;
182 [label="X[3] <= 0.732\nentropy = 0.642\nsamples = 33\nvalue = [8, 41]"] ;
142 -> 182 ;
183 [label="X[1] <= 0.636\nentropy = 0.551\nsamples = 32\nvalue = [6, 41]"] ;
182 -> 183 ;
184 [label="X[4] <= 0.16\nentropy = 0.25\nsamples = 16\nvalue = [1, 23]"] ;
183 -> 184 ;
185 [label="X[3] <= 0.5\nentropy = 0.544\nsamples = 6\nvalue = [1, 7]"] ;
184 -> 185 ;
186 [label="entropy = 0.0\nsamples = 1\nvalue = [1, 0]"] ;
185 -> 186 ;
187 [label="entropy = 0.0\nsamples = 5\nvalue = [0, 7]"] ;
185 -> 187 ;
188 [label="entropy = 0.0\nsamples = 10\nvalue = [0, 16]"] ;
184 -> 188 ;
189 [label="X[4] <= 0.208\nentropy = 0.755\nsamples = 16\nvalue = [5, 18]"] ;
183 -> 189 ;
190 [label="X[3] <= 0.541\nentropy = 1.0\nsamples = 7\nvalue = [5, 5]"] ;
189 -> 190 ;
191 [label="entropy = 0.0\nsamples = 2\nvalue = [0, 3]"] ;
190 -> 191 ;
192 [label="X[6] <= 0.434\nentropy = 0.863\nsamples = 5\nvalue = [5, 2]"] ;
190 -> 192 ;
193 [label="entropy = 0.0\nsamples = 3\nvalue = [5, 0]"] ;
192 -> 193 ;
194 [label="entropy = 0.0\nsamples = 2\nvalue = [0, 2]"] ;
192 -> 194 ;
195 [label="entropy = 0.0\nsamples = 9\nvalue = [0, 13]"] ;
189 -> 195 ;
196 [label="entropy = 0.0\nsamples = 1\nvalue = [2, 0]"] ;
182 -> 196 ;
197 [label="entropy = 0.0\nsamples = 11\nvalue = [0, 20]"] ;
83 -> 197 ;
198 [label="entropy = 0.0\nsamples = 1\nvalue = [2, 0]"] ;
82 -> 198 ;
199 [label="X[2] <= 0.22\nentropy = 1.0\nsamples = 65\nvalue = [54, 53]"] ;
5 -> 199 ;
200 [label="X[1] <= 0.691\nentropy = 0.997\nsamples = 61\nvalue = [54, 47]"] ;
199 -> 200 ;
201 [label="X[6] <= 0.402\nentropy = 1.0\nsamples = 58\nvalue = [49, 47]"] ;
200 -> 201 ;
202 [label="X[6] <= 0.384\nentropy = 0.941\nsamples = 39\nvalue = [43, 24]"] ;
201 -> 202 ;
203 [label="X[1] <= 0.679\nentropy = 0.971\nsamples = 36\nvalue = [36, 24]"] ;
202 -> 203 ;
204 [label="X[5] <= 0.227\nentropy = 0.811\nsamples = 20\nvalue = [27, 9]"] ;
203 -> 204 ;
205 [label="X[3] <= 0.618\nentropy = 0.931\nsamples = 13\nvalue = [17, 9]"] ;
204 -> 205 ;
206 [label="X[5] <= 0.106\nentropy = 0.672\nsamples = 6\nvalue = [14, 3]"] ;
205 -> 206 ;
207 [label="entropy = 0.0\nsamples = 4\nvalue = [14, 0]"] ;
206 -> 207 ;
208 [label="entropy = 0.0\nsamples = 2\nvalue = [0, 3]"] ;
206 -> 208 ;
209 [label="X[6] <= 0.364\nentropy = 0.918\nsamples = 7\nvalue = [3, 6]"] ;
205 -> 209 ;
210 [label="X[4] <= 0.104\nentropy = 0.592\nsamples = 6\nvalue = [1, 6]"] ;
209 -> 210 ;
211 [label="entropy = 0.0\nsamples = 1\nvalue = [1, 0]"] ;
210 -> 211 ;
212 [label="entropy = 0.0\nsamples = 5\nvalue = [0, 6]"] ;
210 -> 212 ;
213 [label="entropy = 0.0\nsamples = 1\nvalue = [2, 0]"] ;
209 -> 213 ;
214 [label="entropy = 0.0\nsamples = 7\nvalue = [10, 0]"] ;
204 -> 214 ;
215 [label="X[2] <= 0.027\nentropy = 0.954\nsamples = 16\nvalue = [9, 15]"] ;
203 -> 215 ;
216 [label="X[5] <= 0.14\nentropy = 0.94\nsamples = 10\nvalue = [9, 5]"] ;
215 -> 216 ;
217 [label="X[2] <= 0.01\nentropy = 0.503\nsamples = 6\nvalue = [8, 1]"] ;
216 -> 217 ;
218 [label="entropy = 0.0\nsamples = 1\nvalue = [0, 1]"] ;
217 -> 218 ;
219 [label="entropy = 0.0\nsamples = 5\nvalue = [8, 0]"] ;
217 -> 219 ;
220 [label="X[6] <= 0.347\nentropy = 0.722\nsamples = 4\nvalue = [1, 4]"] ;
216 -> 220 ;
221 [label="entropy = 0.0\nsamples = 1\nvalue = [1, 0]"] ;
220 -> 221 ;
222 [label="entropy = 0.0\nsamples = 3\nvalue = [0, 4]"] ;
220 -> 222 ;
223 [label="entropy = 0.0\nsamples = 6\nvalue = [0, 10]"] ;
215 -> 223 ;
224 [label="entropy = 0.0\nsamples = 3\nvalue = [7, 0]"] ;
202 -> 224 ;
225 [label="X[3] <= 0.586\nentropy = 0.736\nsamples = 19\nvalue = [6, 23]"] ;
201 -> 225 ;
226 [label="X[3] <= 0.527\nentropy = 0.994\nsamples = 7\nvalue = [5, 6]"] ;
225 -> 226 ;
227 [label="entropy = 0.0\nsamples = 3\nvalue = [0, 3]"] ;
226 -> 227 ;
228 [label="X[5] <= 0.197\nentropy = 0.954\nsamples = 4\nvalue = [5, 3]"] ;
226 -> 228 ;
229 [label="entropy = 0.0\nsamples = 3\nvalue = [5, 0]"] ;
228 -> 229 ;
230 [label="entropy = 0.0\nsamples = 1\nvalue = [0, 3]"] ;
228 -> 230 ;
231 [label="X[6] <= 0.464\nentropy = 0.31\nsamples = 12\nvalue = [1, 17]"] ;
225 -> 231 ;
232 [label="entropy = 0.0\nsamples = 10\nvalue = [0, 16]"] ;
231 -> 232 ;
233 [label="X[5] <= 0.166\nentropy = 1.0\nsamples = 2\nvalue = [1, 1]"] ;
231 -> 233 ;
234 [label="entropy = 0.0\nsamples = 1\nvalue = [1, 0]"] ;
233 -> 234 ;
235 [label="entropy = 0.0\nsamples = 1\nvalue = [0, 1]"] ;
233 -> 235 ;
236 [label="entropy = 0.0\nsamples = 3\nvalue = [5, 0]"] ;
200 -> 236 ;
237 [label="entropy = 0.0\nsamples = 4\nvalue = [0, 6]"] ;
199 -> 237 ;
238 [label="X[3] <= 0.732\nentropy = 0.126\nsamples = 69\nvalue = [2, 114]"] ;
2 -> 238 ;
239 [label="entropy = 0.0\nsamples = 63\nvalue = [0, 103]"] ;
238 -> 239 ;
240 [label="X[6] <= 0.358\nentropy = 0.619\nsamples = 6\nvalue = [2, 11]"] ;
238 -> 240 ;
241 [label="entropy = 0.0\nsamples = 1\nvalue = [2, 0]"] ;
240 -> 241 ;
242 [label="entropy = 0.0\nsamples = 5\nvalue = [0, 11]"] ;
240 -> 242 ;
243 [label="X[1] <= 0.715\nentropy = 0.507\nsamples = 403\nvalue = [69, 545]"] ;
1 -> 243 ;
244 [label="X[3] <= 0.714\nentropy = 0.185\nsamples = 135\nvalue = [6, 207]"] ;
243 -> 244 ;
245 [label="X[3] <= 0.705\nentropy = 0.75\nsamples = 20\nvalue = [6, 22]"] ;
244 -> 245 ;
246 [label="X[2] <= 0.03\nentropy = 0.529\nsamples = 19\nvalue = [3, 22]"] ;
245 -> 246 ;
247 [label="X[1] <= 0.711\nentropy = 0.75\nsamples = 9\nvalue = [3, 11]"] ;
246 -> 247 ;
248 [label="X[4] <= 0.198\nentropy = 0.918\nsamples = 6\nvalue = [3, 6]"] ;
247 -> 248 ;
249 [label="entropy = 0.0\nsamples = 1\nvalue = [1, 0]"] ;
248 -> 249 ;
250 [label="X[3] <= 0.564\nentropy = 0.811\nsamples = 5\nvalue = [2, 6]"] ;
248 -> 250 ;
251 [label="entropy = 0.0\nsamples = 1\nvalue = [1, 0]"] ;
250 -> 251 ;
252 [label="X[5] <= 0.156\nentropy = 0.592\nsamples = 4\nvalue = [1, 6]"] ;
250 -> 252 ;
253 [label="X[3] <= 0.577\nentropy = 0.918\nsamples = 2\nvalue = [1, 2]"] ;
252 -> 253 ;
254 [label="entropy = 0.0\nsamples = 1\nvalue = [0, 2]"] ;
253 -> 254 ;
255 [label="entropy = 0.0\nsamples = 1\nvalue = [1, 0]"] ;
253 -> 255 ;
256 [label="entropy = 0.0\nsamples = 2\nvalue = [0, 4]"] ;
252 -> 256 ;
257 [label="entropy = 0.0\nsamples = 3\nvalue = [0, 5]"] ;
247 -> 257 ;
258 [label="entropy = 0.0\nsamples = 10\nvalue = [0, 11]"] ;
246 -> 258 ;
259 [label="entropy = 0.0\nsamples = 1\nvalue = [3, 0]"] ;
245 -> 259 ;
260 [label="entropy = 0.0\nsamples = 115\nvalue = [0, 185]"] ;
244 -> 260 ;
261 [label="X[5] <= 0.052\nentropy = 0.627\nsamples = 268\nvalue = [63, 338]"] ;
243 -> 261 ;
262 [label="X[4] <= 0.255\nentropy = 0.253\nsamples = 49\nvalue = [3, 68]"] ;
261 -> 262 ;
263 [label="X[1] <= 0.836\nentropy = 0.126\nsamples = 38\nvalue = [1, 57]"] ;
262 -> 263 ;
264 [label="entropy = 0.0\nsamples = 33\nvalue = [0, 51]"] ;
263 -> 264 ;
265 [label="X[1] <= 0.843\nentropy = 0.592\nsamples = 5\nvalue = [1, 6]"] ;
263 -> 265 ;
266 [label="entropy = 0.0\nsamples = 1\nvalue = [1, 0]"] ;
265 -> 266 ;
267 [label="entropy = 0.0\nsamples = 4\nvalue = [0, 6]"] ;
265 -> 267 ;
268 [label="X[6] <= 0.397\nentropy = 0.619\nsamples = 11\nvalue = [2, 11]"] ;
262 -> 268 ;
269 [label="X[4] <= 0.274\nentropy = 0.469\nsamples = 8\nvalue = [1, 9]"] ;
268 -> 269 ;
270 [label="X[1] <= 0.749\nentropy = 0.722\nsamples = 4\nvalue = [1, 4]"] ;
269 -> 270 ;
271 [label="entropy = 0.0\nsamples = 1\nvalue = [1, 0]"] ;
270 -> 271 ;
272 [label="entropy = 0.0\nsamples = 3\nvalue = [0, 4]"] ;
270 -> 272 ;
273 [label="entropy = 0.0\nsamples = 4\nvalue = [0, 5]"] ;
269 -> 273 ;
274 [label="X[1] <= 0.753\nentropy = 0.918\nsamples = 3\nvalue = [1, 2]"] ;
268 -> 274 ;
275 [label="entropy = 0.0\nsamples = 1\nvalue = [0, 1]"] ;
274 -> 275 ;
276 [label="X[5] <= 0.028\nentropy = 1.0\nsamples = 2\nvalue = [1, 1]"] ;
274 -> 276 ;
277 [label="entropy = 0.0\nsamples = 1\nvalue = [1, 0]"] ;
276 -> 277 ;
278 [label="entropy = 0.0\nsamples = 1\nvalue = [0, 1]"] ;
276 -> 278 ;
279 [label="X[5] <= 0.07\nentropy = 0.684\nsamples = 219\nvalue = [60, 270]"] ;
261 -> 279 ;
280 [label="X[2] <= 0.02\nentropy = 0.998\nsamples = 22\nvalue = [16, 18]"] ;
279 -> 280 ;
281 [label="X[3] <= 0.75\nentropy = 0.65\nsamples = 12\nvalue = [15, 3]"] ;
280 -> 281 ;
282 [label="X[1] <= 0.821\nentropy = 0.954\nsamples = 4\nvalue = [5, 3]"] ;
281 -> 282 ;
283 [label="X[1] <= 0.754\nentropy = 0.65\nsamples = 3\nvalue = [5, 1]"] ;
282 -> 283 ;
284 [label="entropy = 0.0\nsamples = 1\nvalue = [0, 1]"] ;
283 -> 284 ;
285 [label="entropy = 0.0\nsamples = 2\nvalue = [5, 0]"] ;
283 -> 285 ;
286 [label="entropy = 0.0\nsamples = 1\nvalue = [0, 2]"] ;
282 -> 286 ;
287 [label="entropy = 0.0\nsamples = 8\nvalue = [10, 0]"] ;
281 -> 287 ;
288 [label="X[2] <= 0.031\nentropy = 0.337\nsamples = 10\nvalue = [1, 15]"] ;
280 -> 288 ;
289 [label="X[2] <= 0.027\nentropy = 0.722\nsamples = 4\nvalue = [1, 4]"] ;
288 -> 289 ;
290 [label="entropy = 0.0\nsamples = 3\nvalue = [0, 4]"] ;
289 -> 290 ;
291 [label="entropy = 0.0\nsamples = 1\nvalue = [1, 0]"] ;
289 -> 291 ;
292 [label="entropy = 0.0\nsamples = 6\nvalue = [0, 11]"] ;
288 -> 292 ;
293 [label="X[4] <= 0.066\nentropy = 0.606\nsamples = 197\nvalue = [44, 252]"] ;
279 -> 293 ;
294 [label="X[5] <= 0.216\nentropy = 0.811\nsamples = 4\nvalue = [3, 1]"] ;
293 -> 294 ;
295 [label="entropy = 0.0\nsamples = 3\nvalue = [3, 0]"] ;
294 -> 295 ;
296 [label="entropy = 0.0\nsamples = 1\nvalue = [0, 1]"] ;
294 -> 296 ;
297 [label="X[6] <= 0.361\nentropy = 0.585\nsamples = 193\nvalue = [41, 251]"] ;
293 -> 297 ;
298 [label="X[5] <= 0.255\nentropy = 0.493\nsamples = 129\nvalue = [22, 182]"] ;
297 -> 298 ;
299 [label="X[3] <= 0.827\nentropy = 0.534\nsamples = 111\nvalue = [22, 159]"] ;
298 -> 299 ;
300 [label="X[6] <= 0.34\nentropy = 0.421\nsamples = 88\nvalue = [13, 139]"] ;
299 -> 300 ;
301 [label="entropy = 0.0\nsamples = 18\nvalue = [0, 30]"] ;
300 -> 301 ;
302 [label="X[0] <= 0.5\nentropy = 0.489\nsamples = 70\nvalue = [13, 109]"] ;
300 -> 302 ;
303 [label="X[1] <= 0.868\nentropy = 0.284\nsamples = 49\nvalue = [4, 77]"] ;
302 -> 303 ;
304 [label="X[5] <= 0.187\nentropy = 0.231\nsamples = 48\nvalue = [3, 77]"] ;
303 -> 304 ;
305 [label="entropy = 0.0\nsamples = 34\nvalue = [0, 57]"] ;
304 -> 305 ;
306 [label="X[1] <= 0.765\nentropy = 0.559\nsamples = 14\nvalue = [3, 20]"] ;
304 -> 306 ;
307 [label="entropy = 0.0\nsamples = 5\nvalue = [0, 10]"] ;
306 -> 307 ;
308 [label="X[4] <= 0.16\nentropy = 0.779\nsamples = 9\nvalue = [3, 10]"] ;
306 -> 308 ;
309 [label="entropy = 0.0\nsamples = 1\nvalue = [1, 0]"] ;
308 -> 309 ;
310 [label="X[6] <= 0.358\nentropy = 0.65\nsamples = 8\nvalue = [2, 10]"] ;
308 -> 310 ;
311 [label="X[4] <= 0.274\nentropy = 0.971\nsamples = 5\nvalue = [2, 3]"] ;
310 -> 311 ;
312 [label="X[2] <= 0.016\nentropy = 1.0\nsamples = 4\nvalue = [2, 2]"] ;
311 -> 312 ;
313 [label="entropy = 0.0\nsamples = 1\nvalue = [1, 0]"] ;
312 -> 313 ;
314 [label="X[1] <= 0.809\nentropy = 0.918\nsamples = 3\nvalue = [1, 2]"] ;
312 -> 314 ;
315 [label="entropy = 0.0\nsamples = 1\nvalue = [0, 1]"] ;
314 -> 315 ;
316 [label="X[3] <= 0.768\nentropy = 1.0\nsamples = 2\nvalue = [1, 1]"] ;
314 -> 316 ;
317 [label="entropy = 0.0\nsamples = 1\nvalue = [1, 0]"] ;
316 -> 317 ;
318 [label="entropy = 0.0\nsamples = 1\nvalue = [0, 1]"] ;
316 -> 318 ;
319 [label="entropy = 0.0\nsamples = 1\nvalue = [0, 1]"] ;
311 -> 319 ;
320 [label="entropy = 0.0\nsamples = 3\nvalue = [0, 7]"] ;
310 -> 320 ;
321 [label="entropy = 0.0\nsamples = 1\nvalue = [1, 0]"] ;
303 -> 321 ;
322 [label="X[1] <= 0.79\nentropy = 0.759\nsamples = 21\nvalue = [9, 32]"] ;
302 -> 322 ;
323 [label="X[2] <= 0.032\nentropy = 0.906\nsamples = 14\nvalue = [9, 19]"] ;
322 -> 323 ;
324 [label="X[2] <= 0.017\nentropy = 0.989\nsamples = 8\nvalue = [9, 7]"] ;
323 -> 324 ;
325 [label="entropy = 0.0\nsamples = 1\nvalue = [0, 3]"] ;
324 -> 325 ;
326 [label="X[4] <= 0.245\nentropy = 0.89\nsamples = 7\nvalue = [9, 4]"] ;
324 -> 326 ;
327 [label="entropy = 0.0\nsamples = 3\nvalue = [7, 0]"] ;
326 -> 327 ;
328 [label="X[4] <= 0.274\nentropy = 0.918\nsamples = 4\nvalue = [2, 4]"] ;
326 -> 328 ;
329 [label="entropy = 0.0\nsamples = 3\nvalue = [0, 4]"] ;
328 -> 329 ;
330 [label="entropy = 0.0\nsamples = 1\nvalue = [2, 0]"] ;
328 -> 330 ;
331 [label="entropy = 0.0\nsamples = 6\nvalue = [0, 12]"] ;
323 -> 331 ;
332 [label="entropy = 0.0\nsamples = 7\nvalue = [0, 13]"] ;
322 -> 332 ;
333 [label="X[3] <= 0.845\nentropy = 0.894\nsamples = 23\nvalue = [9, 20]"] ;
299 -> 333 ;
334 [label="X[4] <= 0.16\nentropy = 0.722\nsamples = 4\nvalue = [4, 1]"] ;
333 -> 334 ;
335 [label="entropy = 0.0\nsamples = 1\nvalue = [0, 1]"] ;
334 -> 335 ;
336 [label="entropy = 0.0\nsamples = 3\nvalue = [4, 0]"] ;
334 -> 336 ;
337 [label="X[2] <= 0.051\nentropy = 0.738\nsamples = 19\nvalue = [5, 19]"] ;
333 -> 337 ;
338 [label="X[4] <= 0.236\nentropy = 0.485\nsamples = 15\nvalue = [2, 17]"] ;
337 -> 338 ;
339 [label="entropy = 0.0\nsamples = 12\nvalue = [0, 16]"] ;
338 -> 339 ;
340 [label="X[3] <= 0.9\nentropy = 0.918\nsamples = 3\nvalue = [2, 1]"] ;
338 -> 340 ;
341 [label="entropy = 0.0\nsamples = 2\nvalue = [2, 0]"] ;
340 -> 341 ;
342 [label="entropy = 0.0\nsamples = 1\nvalue = [0, 1]"] ;
340 -> 342 ;
343 [label="X[5] <= 0.114\nentropy = 0.971\nsamples = 4\nvalue = [3, 2]"] ;
337 -> 343 ;
344 [label="entropy = 0.0\nsamples = 1\nvalue = [0, 2]"] ;
343 -> 344 ;
345 [label="entropy = 0.0\nsamples = 3\nvalue = [3, 0]"] ;
343 -> 345 ;
346 [label="entropy = 0.0\nsamples = 18\nvalue = [0, 23]"] ;
298 -> 346 ;
347 [label="X[6] <= 0.364\nentropy = 0.753\nsamples = 64\nvalue = [19, 69]"] ;
297 -> 347 ;
348 [label="X[1] <= 0.758\nentropy = 1.0\nsamples = 9\nvalue = [8, 8]"] ;
347 -> 348 ;
349 [label="entropy = 0.0\nsamples = 5\nvalue = [8, 0]"] ;
348 -> 349 ;
350 [label="entropy = 0.0\nsamples = 4\nvalue = [0, 8]"] ;
348 -> 350 ;
351 [label="X[5] <= 0.168\nentropy = 0.617\nsamples = 55\nvalue = [11, 61]"] ;
347 -> 351 ;
352 [label="X[1] <= 0.823\nentropy = 0.845\nsamples = 22\nvalue = [9, 24]"] ;
351 -> 352 ;
353 [label="X[4] <= 0.217\nentropy = 0.516\nsamples = 19\nvalue = [3, 23]"] ;
352 -> 353 ;
354 [label="X[1] <= 0.79\nentropy = 0.65\nsamples = 13\nvalue = [3, 15]"] ;
353 -> 354 ;
355 [label="X[1] <= 0.77\nentropy = 0.845\nsamples = 9\nvalue = [3, 8]"] ;
354 -> 355 ;
356 [label="X[3] <= 0.541\nentropy = 0.503\nsamples = 7\nvalue = [1, 8]"] ;
355 -> 356 ;
357 [label="entropy = 0.0\nsamples = 1\nvalue = [1, 0]"] ;
356 -> 357 ;
358 [label="entropy = 0.0\nsamples = 6\nvalue = [0, 8]"] ;
356 -> 358 ;
359 [label="entropy = 0.0\nsamples = 2\nvalue = [2, 0]"] ;
355 -> 359 ;
360 [label="entropy = 0.0\nsamples = 4\nvalue = [0, 7]"] ;
354 -> 360 ;
361 [label="entropy = 0.0\nsamples = 6\nvalue = [0, 8]"] ;
353 -> 361 ;
362 [label="X[5] <= 0.1\nentropy = 0.592\nsamples = 3\nvalue = [6, 1]"] ;
352 -> 362 ;
363 [label="entropy = 0.0\nsamples = 1\nvalue = [0, 1]"] ;
362 -> 363 ;
364 [label="entropy = 0.0\nsamples = 2\nvalue = [6, 0]"] ;
362 -> 364 ;
365 [label="X[1] <= 0.842\nentropy = 0.292\nsamples = 33\nvalue = [2, 37]"] ;
351 -> 365 ;
366 [label="X[2] <= 0.016\nentropy = 0.176\nsamples = 32\nvalue = [1, 37]"] ;
365 -> 366 ;
367 [label="X[2] <= 0.015\nentropy = 0.469\nsamples = 8\nvalue = [1, 9]"] ;
366 -> 367 ;
368 [label="entropy = 0.0\nsamples = 7\nvalue = [0, 9]"] ;
367 -> 368 ;
369 [label="entropy = 0.0\nsamples = 1\nvalue = [1, 0]"] ;
367 -> 369 ;
370 [label="entropy = 0.0\nsamples = 24\nvalue = [0, 28]"] ;
366 -> 370 ;
371 [label="entropy = 0.0\nsamples = 1\nvalue = [1, 0]"] ;
365 -> 371 ;
372 [label="X[4] <= 0.294\nentropy = 0.743\nsamples = 2077\nvalue = [2588, 691]"] ;
0 -> 372 [labeldistance=2.5, labelangle=-45, headlabel="False"] ;
373 [label="X[3] <= 0.159\nentropy = 0.109\nsamples = 1578\nvalue = [2455, 36]"] ;
372 -> 373 ;
374 [label="entropy = 0.0\nsamples = 470\nvalue = [736, 0]"] ;
373 -> 374 ;
375 [label="X[3] <= 0.441\nentropy = 0.144\nsamples = 1108\nvalue = [1719, 36]"] ;
373 -> 375 ;
376 [label="X[2] <= 0.01\nentropy = 0.192\nsamples = 763\nvalue = [1182, 36]"] ;
375 -> 376 ;
377 [label="X[2] <= 0.006\nentropy = 0.149\nsamples = 413\nvalue = [643, 14]"] ;
376 -> 377 ;
378 [label="X[1] <= 0.399\nentropy = 0.27\nsamples = 106\nvalue = [165, 8]"] ;
377 -> 378 ;
379 [label="X[1] <= 0.397\nentropy = 0.297\nsamples = 94\nvalue = [144, 8]"] ;
378 -> 379 ;
380 [label="X[2] <= 0.006\nentropy = 0.242\nsamples = 93\nvalue = [144, 6]"] ;
379 -> 380 ;
381 [label="X[1] <= 0.386\nentropy = 0.294\nsamples = 78\nvalue = [110, 6]"] ;
380 -> 381 ;
382 [label="X[2] <= 0.006\nentropy = 0.267\nsamples = 75\nvalue = [105, 5]"] ;
381 -> 382 ;
383 [label="X[0] <= 0.5\nentropy = 0.183\nsamples = 74\nvalue = [105, 3]"] ;
382 -> 383 ;
384 [label="X[3] <= 0.295\nentropy = 0.235\nsamples = 52\nvalue = [75, 3]"] ;
383 -> 384 ;
385 [label="entropy = 0.0\nsamples = 30\nvalue = [48, 0]"] ;
384 -> 385 ;
386 [label="X[3] <= 0.305\nentropy = 0.469\nsamples = 22\nvalue = [27, 3]"] ;
384 -> 386 ;
387 [label="entropy = 0.0\nsamples = 1\nvalue = [0, 2]"] ;
386 -> 387 ;
388 [label="X[3] <= 0.432\nentropy = 0.222\nsamples = 21\nvalue = [27, 1]"] ;
386 -> 388 ;
389 [label="entropy = 0.0\nsamples = 19\nvalue = [26, 0]"] ;
388 -> 389 ;
390 [label="X[1] <= 0.004\nentropy = 1.0\nsamples = 2\nvalue = [1, 1]"] ;
388 -> 390 ;
391 [label="entropy = 0.0\nsamples = 1\nvalue = [0, 1]"] ;
390 -> 391 ;
392 [label="entropy = 0.0\nsamples = 1\nvalue = [1, 0]"] ;
390 -> 392 ;
393 [label="entropy = 0.0\nsamples = 22\nvalue = [30, 0]"] ;
383 -> 393 ;
394 [label="entropy = 0.0\nsamples = 1\nvalue = [0, 2]"] ;
382 -> 394 ;
395 [label="X[3] <= 0.341\nentropy = 0.65\nsamples = 3\nvalue = [5, 1]"] ;
381 -> 395 ;
396 [label="X[1] <= 0.387\nentropy = 0.918\nsamples = 2\nvalue = [2, 1]"] ;
395 -> 396 ;
397 [label="entropy = 0.0\nsamples = 1\nvalue = [0, 1]"] ;
396 -> 397 ;
398 [label="entropy = 0.0\nsamples = 1\nvalue = [2, 0]"] ;
396 -> 398 ;
399 [label="entropy = 0.0\nsamples = 1\nvalue = [3, 0]"] ;
395 -> 399 ;
400 [label="entropy = 0.0\nsamples = 15\nvalue = [34, 0]"] ;
380 -> 400 ;
401 [label="entropy = 0.0\nsamples = 1\nvalue = [0, 2]"] ;
379 -> 401 ;
402 [label="entropy = 0.0\nsamples = 12\nvalue = [21, 0]"] ;
378 -> 402 ;
403 [label="X[2] <= 0.009\nentropy = 0.096\nsamples = 307\nvalue = [478, 6]"] ;
377 -> 403 ;
404 [label="X[1] <= 0.503\nentropy = 0.114\nsamples = 253\nvalue = [385, 6]"] ;
403 -> 404 ;
405 [label="X[2] <= 0.007\nentropy = 0.086\nsamples = 240\nvalue = [368, 4]"] ;
404 -> 405 ;
406 [label="X[0] <= 0.5\nentropy = 0.137\nsamples = 101\nvalue = [153, 3]"] ;
405 -> 406 ;
407 [label="X[2] <= 0.007\nentropy = 0.184\nsamples = 74\nvalue = [104, 3]"] ;
406 -> 407 ;
408 [label="X[3] <= 0.236\nentropy = 0.135\nsamples = 73\nvalue = [104, 2]"] ;
407 -> 408 ;
409 [label="entropy = 0.0\nsamples = 41\nvalue = [59, 0]"] ;
408 -> 409 ;
410 [label="X[2] <= 0.007\nentropy = 0.254\nsamples = 32\nvalue = [45, 2]"] ;
408 -> 410 ;
411 [label="X[1] <= 0.353\nentropy = 0.156\nsamples = 29\nvalue = [43, 1]"] ;
410 -> 411 ;
412 [label="X[3] <= 0.25\nentropy = 0.503\nsamples = 6\nvalue = [8, 1]"] ;
411 -> 412 ;
413 [label="X[2] <= 0.006\nentropy = 0.811\nsamples = 3\nvalue = [3, 1]"] ;
412 -> 413 ;
414 [label="entropy = 0.0\nsamples = 1\nvalue = [1, 0]"] ;
413 -> 414 ;
415 [label="X[1] <= 0.351\nentropy = 0.918\nsamples = 2\nvalue = [2, 1]"] ;
413 -> 415 ;
416 [label="entropy = 0.0\nsamples = 1\nvalue = [2, 0]"] ;
415 -> 416 ;
417 [label="entropy = 0.0\nsamples = 1\nvalue = [0, 1]"] ;
415 -> 417 ;
418 [label="entropy = 0.0\nsamples = 3\nvalue = [5, 0]"] ;
412 -> 418 ;
419 [label="entropy = 0.0\nsamples = 23\nvalue = [35, 0]"] ;
411 -> 419 ;
420 [label="X[2] <= 0.007\nentropy = 0.918\nsamples = 3\nvalue = [2, 1]"] ;
410 -> 420 ;
421 [label="entropy = 0.0\nsamples = 1\nvalue = [0, 1]"] ;
420 -> 421 ;
422 [label="entropy = 0.0\nsamples = 2\nvalue = [2, 0]"] ;
420 -> 422 ;
423 [label="entropy = 0.0\nsamples = 1\nvalue = [0, 1]"] ;
407 -> 423 ;
424 [label="entropy = 0.0\nsamples = 27\nvalue = [49, 0]"] ;
406 -> 424 ;
425 [label="X[1] <= 0.25\nentropy = 0.043\nsamples = 139\nvalue = [215, 1]"] ;
405 -> 425 ;
426 [label="X[1] <= 0.249\nentropy = 0.1\nsamples = 46\nvalue = [76, 1]"] ;
425 -> 426 ;
427 [label="entropy = 0.0\nsamples = 45\nvalue = [76, 0]"] ;
426 -> 427 ;
428 [label="entropy = 0.0\nsamples = 1\nvalue = [0, 1]"] ;
426 -> 428 ;
429 [label="entropy = 0.0\nsamples = 93\nvalue = [139, 0]"] ;
425 -> 429 ;
430 [label="X[2] <= 0.009\nentropy = 0.485\nsamples = 13\nvalue = [17, 2]"] ;
404 -> 430 ;
431 [label="entropy = 0.0\nsamples = 12\nvalue = [17, 0]"] ;
430 -> 431 ;
432 [label="entropy = 0.0\nsamples = 1\nvalue = [0, 2]"] ;
430 -> 432 ;
433 [label="entropy = 0.0\nsamples = 54\nvalue = [93, 0]"] ;
403 -> 433 ;
434 [label="X[3] <= 0.259\nentropy = 0.239\nsamples = 350\nvalue = [539, 22]"] ;
376 -> 434 ;
435 [label="X[1] <= 0.322\nentropy = 0.379\nsamples = 89\nvalue = [126, 10]"] ;
434 -> 435 ;
436 [label="X[3] <= 0.241\nentropy = 0.328\nsamples = 87\nvalue = [125, 8]"] ;
435 -> 436 ;
437 [label="X[2] <= 0.015\nentropy = 0.362\nsamples = 75\nvalue = [108, 8]"] ;
436 -> 437 ;
438 [label="X[2] <= 0.015\nentropy = 0.503\nsamples = 46\nvalue = [64, 8]"] ;
437 -> 438 ;
439 [label="X[2] <= 0.01\nentropy = 0.422\nsamples = 45\nvalue = [64, 6]"] ;
438 -> 439 ;
440 [label="X[1] <= 0.268\nentropy = 0.918\nsamples = 2\nvalue = [1, 2]"] ;
439 -> 440 ;
441 [label="entropy = 0.0\nsamples = 1\nvalue = [1, 0]"] ;
440 -> 441 ;
442 [label="entropy = 0.0\nsamples = 1\nvalue = [0, 2]"] ;
440 -> 442 ;
443 [label="X[2] <= 0.012\nentropy = 0.326\nsamples = 43\nvalue = [63, 4]"] ;
439 -> 443 ;
444 [label="entropy = 0.0\nsamples = 27\nvalue = [40, 0]"] ;
443 -> 444 ;
445 [label="X[0] <= 0.5\nentropy = 0.605\nsamples = 16\nvalue = [23, 4]"] ;
443 -> 445 ;
446 [label="entropy = 0.0\nsamples = 5\nvalue = [8, 0]"] ;
445 -> 446 ;
447 [label="X[1] <= 0.238\nentropy = 0.742\nsamples = 11\nvalue = [15, 4]"] ;
445 -> 447 ;
448 [label="X[1] <= 0.212\nentropy = 0.946\nsamples = 6\nvalue = [7, 4]"] ;
447 -> 448 ;
449 [label="X[2] <= 0.014\nentropy = 0.544\nsamples = 4\nvalue = [7, 1]"] ;
448 -> 449 ;
450 [label="X[1] <= 0.116\nentropy = 0.918\nsamples = 2\nvalue = [2, 1]"] ;
449 -> 450 ;
451 [label="entropy = 0.0\nsamples = 1\nvalue = [0, 1]"] ;
450 -> 451 ;
452 [label="entropy = 0.0\nsamples = 1\nvalue = [2, 0]"] ;
450 -> 452 ;
453 [label="entropy = 0.0\nsamples = 2\nvalue = [5, 0]"] ;
449 -> 453 ;
454 [label="entropy = 0.0\nsamples = 2\nvalue = [0, 3]"] ;
448 -> 454 ;
455 [label="entropy = 0.0\nsamples = 5\nvalue = [8, 0]"] ;
447 -> 455 ;
456 [label="entropy = 0.0\nsamples = 1\nvalue = [0, 2]"] ;
438 -> 456 ;
457 [label="entropy = 0.0\nsamples = 29\nvalue = [44, 0]"] ;
437 -> 457 ;
458 [label="entropy = 0.0\nsamples = 12\nvalue = [17, 0]"] ;
436 -> 458 ;
459 [label="X[1] <= 0.342\nentropy = 0.918\nsamples = 2\nvalue = [1, 2]"] ;
435 -> 459 ;
460 [label="entropy = 0.0\nsamples = 1\nvalue = [0, 2]"] ;
459 -> 460 ;
461 [label="entropy = 0.0\nsamples = 1\nvalue = [1, 0]"] ;
459 -> 461 ;
462 [label="X[3] <= 0.295\nentropy = 0.185\nsamples = 261\nvalue = [413, 12]"] ;
434 -> 462 ;
463 [label="entropy = 0.0\nsamples = 48\nvalue = [73, 0]"] ;
462 -> 463 ;
464 [label="X[1] <= 0.403\nentropy = 0.215\nsamples = 213\nvalue = [340, 12]"] ;
462 -> 464 ;
465 [label="X[1] <= 0.401\nentropy = 0.314\nsamples = 92\nvalue = [150, 9]"] ;
464 -> 465 ;
466 [label="X[0] <= 0.5\nentropy = 0.263\nsamples = 91\nvalue = [150, 7]"] ;
465 -> 466 ;
467 [label="X[3] <= 0.305\nentropy = 0.469\nsamples = 22\nvalue = [27, 3]"] ;
466 -> 467 ;
468 [label="X[1] <= 0.348\nentropy = 0.863\nsamples = 5\nvalue = [5, 2]"] ;
467 -> 468 ;
469 [label="entropy = 0.0\nsamples = 3\nvalue = [4, 0]"] ;
468 -> 469 ;
470 [label="X[2] <= 0.036\nentropy = 0.918\nsamples = 2\nvalue = [1, 2]"] ;
468 -> 470 ;
471 [label="entropy = 0.0\nsamples = 1\nvalue = [1, 0]"] ;
470 -> 471 ;
472 [label="entropy = 0.0\nsamples = 1\nvalue = [0, 2]"] ;
470 -> 472 ;
473 [label="X[2] <= 0.014\nentropy = 0.258\nsamples = 17\nvalue = [22, 1]"] ;
467 -> 473 ;
474 [label="X[2] <= 0.014\nentropy = 0.65\nsamples = 5\nvalue = [5, 1]"] ;
473 -> 474 ;
475 [label="entropy = 0.0\nsamples = 4\nvalue = [5, 0]"] ;
474 -> 475 ;
476 [label="entropy = 0.0\nsamples = 1\nvalue = [0, 1]"] ;
474 -> 476 ;
477 [label="entropy = 0.0\nsamples = 12\nvalue = [17, 0]"] ;
473 -> 477 ;
478 [label="X[1] <= 0.372\nentropy = 0.202\nsamples = 69\nvalue = [123, 4]"] ;
466 -> 478 ;
479 [label="X[3] <= 0.323\nentropy = 0.258\nsamples = 50\nvalue = [88, 4]"] ;
478 -> 479 ;
480 [label="entropy = 0.0\nsamples = 25\nvalue = [43, 0]"] ;
479 -> 480 ;
481 [label="X[1] <= 0.37\nentropy = 0.408\nsamples = 25\nvalue = [45, 4]"] ;
479 -> 481 ;
482 [label="X[2] <= 0.011\nentropy = 0.254\nsamples = 24\nvalue = [45, 2]"] ;
481 -> 482 ;
483 [label="X[1] <= 0.058\nentropy = 0.918\nsamples = 2\nvalue = [1, 2]"] ;
482 -> 483 ;
484 [label="entropy = 0.0\nsamples = 1\nvalue = [1, 0]"] ;
483 -> 484 ;
485 [label="entropy = 0.0\nsamples = 1\nvalue = [0, 2]"] ;
483 -> 485 ;
486 [label="entropy = 0.0\nsamples = 22\nvalue = [44, 0]"] ;
482 -> 486 ;
487 [label="entropy = 0.0\nsamples = 1\nvalue = [0, 2]"] ;
481 -> 487 ;
488 [label="entropy = 0.0\nsamples = 19\nvalue = [35, 0]"] ;
478 -> 488 ;
489 [label="entropy = 0.0\nsamples = 1\nvalue = [0, 2]"] ;
465 -> 489 ;
490 [label="X[3] <= 0.377\nentropy = 0.116\nsamples = 121\nvalue = [190, 3]"] ;
464 -> 490 ;
491 [label="entropy = 0.0\nsamples = 44\nvalue = [69, 0]"] ;
490 -> 491 ;
492 [label="X[2] <= 0.01\nentropy = 0.164\nsamples = 77\nvalue = [121, 3]"] ;
490 -> 492 ;
493 [label="entropy = 0.0\nsamples = 1\nvalue = [0, 1]"] ;
492 -> 493 ;
494 [label="X[2] <= 0.017\nentropy = 0.12\nsamples = 76\nvalue = [121, 2]"] ;
492 -> 494 ;
495 [label="entropy = 0.0\nsamples = 34\nvalue = [60, 0]"] ;
494 -> 495 ;
496 [label="X[2] <= 0.017\nentropy = 0.203\nsamples = 42\nvalue = [61, 2]"] ;
494 -> 496 ;
497 [label="entropy = 0.0\nsamples = 1\nvalue = [0, 1]"] ;
496 -> 497 ;
498 [label="X[1] <= 0.525\nentropy = 0.119\nsamples = 41\nvalue = [61, 1]"] ;
496 -> 498 ;
499 [label="entropy = 0.0\nsamples = 34\nvalue = [55, 0]"] ;
498 -> 499 ;
500 [label="X[2] <= 0.021\nentropy = 0.592\nsamples = 7\nvalue = [6, 1]"] ;
498 -> 500 ;
501 [label="entropy = 0.0\nsamples = 5\nvalue = [5, 0]"] ;
500 -> 501 ;
502 [label="X[1] <= 0.55\nentropy = 1.0\nsamples = 2\nvalue = [1, 1]"] ;
500 -> 502 ;
503 [label="entropy = 0.0\nsamples = 1\nvalue = [0, 1]"] ;
502 -> 503 ;
504 [label="entropy = 0.0\nsamples = 1\nvalue = [1, 0]"] ;
502 -> 504 ;
505 [label="entropy = 0.0\nsamples = 345\nvalue = [537, 0]"] ;
375 -> 505 ;
506 [label="X[5] <= 0.267\nentropy = 0.655\nsamples = 499\nvalue = [133, 655]"] ;
372 -> 506 ;
507 [label="X[1] <= 0.872\nentropy = 0.689\nsamples = 460\nvalue = [133, 590]"] ;
506 -> 507 ;
508 [label="X[2] <= 0.054\nentropy = 0.676\nsamples = 457\nvalue = [128, 590]"] ;
507 -> 508 ;
509 [label="X[1] <= 0.57\nentropy = 0.648\nsamples = 426\nvalue = [110, 554]"] ;
508 -> 509 ;
510 [label="X[3] <= 0.614\nentropy = 0.499\nsamples = 157\nvalue = [27, 219]"] ;
509 -> 510 ;
511 [label="X[2] <= 0.005\nentropy = 0.419\nsamples = 136\nvalue = [18, 194]"] ;
510 -> 511 ;
512 [label="X[5] <= 0.166\nentropy = 0.797\nsamples = 20\nvalue = [7, 22]"] ;
511 -> 512 ;
513 [label="X[3] <= 0.418\nentropy = 0.485\nsamples = 13\nvalue = [2, 17]"] ;
512 -> 513 ;
514 [label="X[4] <= 0.34\nentropy = 0.722\nsamples = 6\nvalue = [2, 8]"] ;
513 -> 514 ;
515 [label="entropy = 0.0\nsamples = 3\nvalue = [0, 7]"] ;
514 -> 515 ;
516 [label="X[0] <= 0.5\nentropy = 0.918\nsamples = 3\nvalue = [2, 1]"] ;
514 -> 516 ;
517 [label="entropy = 0.0\nsamples = 2\nvalue = [2, 0]"] ;
516 -> 517 ;
518 [label="entropy = 0.0\nsamples = 1\nvalue = [0, 1]"] ;
516 -> 518 ;
519 [label="entropy = 0.0\nsamples = 7\nvalue = [0, 9]"] ;
513 -> 519 ;
520 [label="X[5] <= 0.181\nentropy = 1.0\nsamples = 7\nvalue = [5, 5]"] ;
512 -> 520 ;
521 [label="entropy = 0.0\nsamples = 1\nvalue = [4, 0]"] ;
520 -> 521 ;
522 [label="X[6] <= 0.489\nentropy = 0.65\nsamples = 6\nvalue = [1, 5]"] ;
520 -> 522 ;
523 [label="entropy = 0.0\nsamples = 4\nvalue = [0, 4]"] ;
522 -> 523 ;
524 [label="X[5] <= 0.229\nentropy = 1.0\nsamples = 2\nvalue = [1, 1]"] ;
522 -> 524 ;
525 [label="entropy = 0.0\nsamples = 1\nvalue = [0, 1]"] ;
524 -> 525 ;
526 [label="entropy = 0.0\nsamples = 1\nvalue = [1, 0]"] ;
524 -> 526 ;
527 [label="X[2] <= 0.025\nentropy = 0.328\nsamples = 116\nvalue = [11, 172]"] ;
511 -> 527 ;
528 [label="X[1] <= 0.474\nentropy = 0.146\nsamples = 92\nvalue = [3, 141]"] ;
527 -> 528 ;
529 [label="entropy = 0.0\nsamples = 53\nvalue = [0, 83]"] ;
528 -> 529 ;
530 [label="X[0] <= 0.5\nentropy = 0.283\nsamples = 39\nvalue = [3, 58]"] ;
528 -> 530 ;
531 [label="X[3] <= 0.405\nentropy = 0.439\nsamples = 24\nvalue = [3, 30]"] ;
530 -> 531 ;
532 [label="entropy = 0.0\nsamples = 8\nvalue = [0, 13]"] ;
531 -> 532 ;
533 [label="X[1] <= 0.506\nentropy = 0.61\nsamples = 16\nvalue = [3, 17]"] ;
531 -> 533 ;
534 [label="X[5] <= 0.189\nentropy = 0.918\nsamples = 3\nvalue = [2, 1]"] ;
533 -> 534 ;
535 [label="entropy = 0.0\nsamples = 2\nvalue = [2, 0]"] ;
534 -> 535 ;
536 [label="entropy = 0.0\nsamples = 1\nvalue = [0, 1]"] ;
534 -> 536 ;
537 [label="X[2] <= 0.015\nentropy = 0.323\nsamples = 13\nvalue = [1, 16]"] ;
533 -> 537 ;
538 [label="entropy = 0.0\nsamples = 9\nvalue = [0, 12]"] ;
537 -> 538 ;
539 [label="X[5] <= 0.112\nentropy = 0.722\nsamples = 4\nvalue = [1, 4]"] ;
537 -> 539 ;
540 [label="entropy = 0.0\nsamples = 3\nvalue = [0, 4]"] ;
539 -> 540 ;
541 [label="entropy = 0.0\nsamples = 1\nvalue = [1, 0]"] ;
539 -> 541 ;
542 [label="entropy = 0.0\nsamples = 15\nvalue = [0, 28]"] ;
530 -> 542 ;
543 [label="X[2] <= 0.031\nentropy = 0.732\nsamples = 24\nvalue = [8, 31]"] ;
527 -> 543 ;
544 [label="X[6] <= 0.409\nentropy = 0.971\nsamples = 12\nvalue = [6, 9]"] ;
543 -> 544 ;
545 [label="X[6] <= 0.381\nentropy = 0.89\nsamples = 10\nvalue = [4, 9]"] ;
544 -> 545 ;
546 [label="X[5] <= 0.124\nentropy = 0.918\nsamples = 5\nvalue = [4, 2]"] ;
545 -> 546 ;
547 [label="entropy = 0.0\nsamples = 3\nvalue = [4, 0]"] ;
546 -> 547 ;
548 [label="entropy = 0.0\nsamples = 2\nvalue = [0, 2]"] ;
546 -> 548 ;
549 [label="entropy = 0.0\nsamples = 5\nvalue = [0, 7]"] ;
545 -> 549 ;
550 [label="entropy = 0.0\nsamples = 2\nvalue = [2, 0]"] ;
544 -> 550 ;
551 [label="X[1] <= 0.077\nentropy = 0.414\nsamples = 12\nvalue = [2, 22]"] ;
543 -> 551 ;
552 [label="entropy = 0.0\nsamples = 1\nvalue = [2, 0]"] ;
551 -> 552 ;
553 [label="entropy = 0.0\nsamples = 11\nvalue = [0, 22]"] ;
551 -> 553 ;
554 [label="X[6] <= 0.366\nentropy = 0.834\nsamples = 21\nvalue = [9, 25]"] ;
510 -> 554 ;
555 [label="X[3] <= 0.632\nentropy = 0.966\nsamples = 12\nvalue = [9, 14]"] ;
554 -> 555 ;
556 [label="X[5] <= 0.196\nentropy = 0.811\nsamples = 4\nvalue = [6, 2]"] ;
555 -> 556 ;
557 [label="entropy = 0.0\nsamples = 2\nvalue = [0, 2]"] ;
556 -> 557 ;
558 [label="entropy = 0.0\nsamples = 2\nvalue = [6, 0]"] ;
556 -> 558 ;
559 [label="X[6] <= 0.347\nentropy = 0.722\nsamples = 8\nvalue = [3, 12]"] ;
555 -> 559 ;
560 [label="entropy = 0.0\nsamples = 4\nvalue = [0, 8]"] ;
559 -> 560 ;
561 [label="X[4] <= 0.321\nentropy = 0.985\nsamples = 4\nvalue = [3, 4]"] ;
559 -> 561 ;
562 [label="X[3] <= 0.718\nentropy = 0.722\nsamples = 2\nvalue = [1, 4]"] ;
561 -> 562 ;
563 [label="entropy = 0.0\nsamples = 1\nvalue = [0, 4]"] ;
562 -> 563 ;
564 [label="entropy = 0.0\nsamples = 1\nvalue = [1, 0]"] ;
562 -> 564 ;
565 [label="entropy = 0.0\nsamples = 2\nvalue = [2, 0]"] ;
561 -> 565 ;
566 [label="entropy = 0.0\nsamples = 9\nvalue = [0, 11]"] ;
554 -> 566 ;
567 [label="X[1] <= 0.708\nentropy = 0.719\nsamples = 269\nvalue = [83, 335]"] ;
509 -> 567 ;
568 [label="X[5] <= 0.188\nentropy = 0.843\nsamples = 141\nvalue = [61, 164]"] ;
567 -> 568 ;
569 [label="X[4] <= 0.858\nentropy = 0.912\nsamples = 100\nvalue = [50, 103]"] ;
568 -> 569 ;
570 [label="X[1] <= 0.69\nentropy = 0.897\nsamples = 98\nvalue = [47, 103]"] ;
569 -> 570 ;
571 [label="X[3] <= 0.65\nentropy = 0.794\nsamples = 80\nvalue = [29, 92]"] ;
570 -> 571 ;
572 [label="X[4] <= 0.66\nentropy = 0.902\nsamples = 58\nvalue = [28, 60]"] ;
571 -> 572 ;
573 [label="X[3] <= 0.545\nentropy = 0.942\nsamples = 52\nvalue = [28, 50]"] ;
572 -> 573 ;
574 [label="X[1] <= 0.579\nentropy = 0.689\nsamples = 24\nvalue = [7, 31]"] ;
573 -> 574 ;
575 [label="entropy = 0.0\nsamples = 2\nvalue = [3, 0]"] ;
574 -> 575 ;
576 [label="X[1] <= 0.629\nentropy = 0.513\nsamples = 22\nvalue = [4, 31]"] ;
574 -> 576 ;
577 [label="X[6] <= 0.349\nentropy = 0.722\nsamples = 12\nvalue = [4, 16]"] ;
576 -> 577 ;
578 [label="X[5] <= 0.023\nentropy = 0.918\nsamples = 4\nvalue = [4, 2]"] ;
577 -> 578 ;
579 [label="entropy = 0.0\nsamples = 1\nvalue = [0, 2]"] ;
578 -> 579 ;
580 [label="entropy = 0.0\nsamples = 3\nvalue = [4, 0]"] ;
578 -> 580 ;
581 [label="entropy = 0.0\nsamples = 8\nvalue = [0, 14]"] ;
577 -> 581 ;
582 [label="entropy = 0.0\nsamples = 10\nvalue = [0, 15]"] ;
576 -> 582 ;
583 [label="X[5] <= 0.144\nentropy = 0.998\nsamples = 28\nvalue = [21, 19]"] ;
573 -> 583 ;
584 [label="X[3] <= 0.623\nentropy = 0.954\nsamples = 21\nvalue = [20, 12]"] ;
583 -> 584 ;
585 [label="X[5] <= 0.128\nentropy = 0.99\nsamples = 16\nvalue = [14, 11]"] ;
584 -> 585 ;
586 [label="X[5] <= 0.111\nentropy = 1.0\nsamples = 15\nvalue = [11, 11]"] ;
585 -> 586 ;
587 [label="X[1] <= 0.679\nentropy = 0.964\nsamples = 13\nvalue = [11, 7]"] ;
586 -> 587 ;
588 [label="X[6] <= 0.364\nentropy = 0.837\nsamples = 11\nvalue = [11, 4]"] ;
587 -> 588 ;
589 [label="entropy = 0.0\nsamples = 3\nvalue = [6, 0]"] ;
588 -> 589 ;
590 [label="X[6] <= 0.409\nentropy = 0.991\nsamples = 8\nvalue = [5, 4]"] ;
588 -> 590 ;
591 [label="X[5] <= 0.05\nentropy = 0.918\nsamples = 6\nvalue = [2, 4]"] ;
590 -> 591 ;
592 [label="X[3] <= 0.586\nentropy = 0.918\nsamples = 3\nvalue = [2, 1]"] ;
591 -> 592 ;
593 [label="entropy = 0.0\nsamples = 1\nvalue = [1, 0]"] ;
592 -> 593 ;
594 [label="X[4] <= 0.311\nentropy = 1.0\nsamples = 2\nvalue = [1, 1]"] ;
592 -> 594 ;
595 [label="entropy = 0.0\nsamples = 1\nvalue = [1, 0]"] ;
594 -> 595 ;
596 [label="entropy = 0.0\nsamples = 1\nvalue = [0, 1]"] ;
594 -> 596 ;
597 [label="entropy = 0.0\nsamples = 3\nvalue = [0, 3]"] ;
591 -> 597 ;
598 [label="entropy = 0.0\nsamples = 2\nvalue = [3, 0]"] ;
590 -> 598 ;
599 [label="entropy = 0.0\nsamples = 2\nvalue = [0, 3]"] ;
587 -> 599 ;
600 [label="entropy = 0.0\nsamples = 2\nvalue = [0, 4]"] ;
586 -> 600 ;
601 [label="entropy = 0.0\nsamples = 1\nvalue = [3, 0]"] ;
585 -> 601 ;
602 [label="X[2] <= 0.021\nentropy = 0.592\nsamples = 5\nvalue = [6, 1]"] ;
584 -> 602 ;
603 [label="entropy = 0.0\nsamples = 3\nvalue = [5, 0]"] ;
602 -> 603 ;
604 [label="X[1] <= 0.68\nentropy = 1.0\nsamples = 2\nvalue = [1, 1]"] ;
602 -> 604 ;
605 [label="entropy = 0.0\nsamples = 1\nvalue = [1, 0]"] ;
604 -> 605 ;
606 [label="entropy = 0.0\nsamples = 1\nvalue = [0, 1]"] ;
604 -> 606 ;
607 [label="X[3] <= 0.591\nentropy = 0.544\nsamples = 7\nvalue = [1, 7]"] ;
583 -> 607 ;
608 [label="X[2] <= 0.02\nentropy = 0.918\nsamples = 3\nvalue = [1, 2]"] ;
607 -> 608 ;
609 [label="entropy = 0.0\nsamples = 1\nvalue = [1, 0]"] ;
608 -> 609 ;
610 [label="entropy = 0.0\nsamples = 2\nvalue = [0, 2]"] ;
608 -> 610 ;
611 [label="entropy = 0.0\nsamples = 4\nvalue = [0, 5]"] ;
607 -> 611 ;
612 [label="entropy = 0.0\nsamples = 6\nvalue = [0, 10]"] ;
572 -> 612 ;
613 [label="X[5] <= 0.056\nentropy = 0.196\nsamples = 22\nvalue = [1, 32]"] ;
571 -> 613 ;
614 [label="X[3] <= 0.759\nentropy = 0.391\nsamples = 9\nvalue = [1, 12]"] ;
613 -> 614 ;
615 [label="X[6] <= 0.402\nentropy = 0.65\nsamples = 5\nvalue = [1, 5]"] ;
614 -> 615 ;
616 [label="entropy = 0.0\nsamples = 1\nvalue = [1, 0]"] ;
615 -> 616 ;
617 [label="entropy = 0.0\nsamples = 4\nvalue = [0, 5]"] ;
615 -> 617 ;
618 [label="entropy = 0.0\nsamples = 4\nvalue = [0, 7]"] ;
614 -> 618 ;
619 [label="entropy = 0.0\nsamples = 13\nvalue = [0, 20]"] ;
613 -> 619 ;
620 [label="X[0] <= 0.5\nentropy = 0.958\nsamples = 18\nvalue = [18, 11]"] ;
570 -> 620 ;
621 [label="X[1] <= 0.706\nentropy = 0.845\nsamples = 7\nvalue = [3, 8]"] ;
620 -> 621 ;
622 [label="entropy = 0.0\nsamples = 5\nvalue = [0, 8]"] ;
621 -> 622 ;
623 [label="entropy = 0.0\nsamples = 2\nvalue = [3, 0]"] ;
621 -> 623 ;
624 [label="X[6] <= 0.426\nentropy = 0.65\nsamples = 11\nvalue = [15, 3]"] ;
620 -> 624 ;
625 [label="X[5] <= 0.147\nentropy = 0.523\nsamples = 10\nvalue = [15, 2]"] ;
624 -> 625 ;
626 [label="entropy = 0.0\nsamples = 5\nvalue = [8, 0]"] ;
625 -> 626 ;
627 [label="X[5] <= 0.172\nentropy = 0.764\nsamples = 5\nvalue = [7, 2]"] ;
625 -> 627 ;
628 [label="entropy = 0.0\nsamples = 2\nvalue = [0, 2]"] ;
627 -> 628 ;
629 [label="entropy = 0.0\nsamples = 3\nvalue = [7, 0]"] ;
627 -> 629 ;
630 [label="entropy = 0.0\nsamples = 1\nvalue = [0, 1]"] ;
624 -> 630 ;
631 [label="entropy = 0.0\nsamples = 2\nvalue = [3, 0]"] ;
569 -> 631 ;
632 [label="X[5] <= 0.217\nentropy = 0.617\nsamples = 41\nvalue = [11, 61]"] ;
568 -> 632 ;
633 [label="entropy = 0.0\nsamples = 14\nvalue = [0, 26]"] ;
632 -> 633 ;
634 [label="X[3] <= 0.659\nentropy = 0.794\nsamples = 27\nvalue = [11, 35]"] ;
632 -> 634 ;
635 [label="X[5] <= 0.243\nentropy = 0.967\nsamples = 17\nvalue = [11, 17]"] ;
634 -> 635 ;
636 [label="X[0] <= 0.5\nentropy = 0.946\nsamples = 8\nvalue = [7, 4]"] ;
635 -> 636 ;
637 [label="entropy = 0.0\nsamples = 3\nvalue = [0, 4]"] ;
636 -> 637 ;
638 [label="entropy = 0.0\nsamples = 5\nvalue = [7, 0]"] ;
636 -> 638 ;
639 [label="X[0] <= 0.5\nentropy = 0.787\nsamples = 9\nvalue = [4, 13]"] ;
635 -> 639 ;
640 [label="entropy = 0.0\nsamples = 2\nvalue = [3, 0]"] ;
639 -> 640 ;
641 [label="X[6] <= 0.369\nentropy = 0.371\nsamples = 7\nvalue = [1, 13]"] ;
639 -> 641 ;
642 [label="X[4] <= 0.34\nentropy = 0.918\nsamples = 2\nvalue = [1, 2]"] ;
641 -> 642 ;
643 [label="entropy = 0.0\nsamples = 1\nvalue = [1, 0]"] ;
642 -> 643 ;
644 [label="entropy = 0.0\nsamples = 1\nvalue = [0, 2]"] ;
642 -> 644 ;
645 [label="entropy = 0.0\nsamples = 5\nvalue = [0, 11]"] ;
641 -> 645 ;
646 [label="entropy = 0.0\nsamples = 10\nvalue = [0, 18]"] ;
634 -> 646 ;
647 [label="X[4] <= 0.311\nentropy = 0.512\nsamples = 128\nvalue = [22, 171]"] ;
567 -> 647 ;
648 [label="X[5] <= 0.1\nentropy = 0.863\nsamples = 22\nvalue = [10, 25]"] ;
647 -> 648 ;
649 [label="entropy = 0.0\nsamples = 9\nvalue = [0, 12]"] ;
648 -> 649 ;
650 [label="X[3] <= 0.736\nentropy = 0.988\nsamples = 13\nvalue = [10, 13]"] ;
648 -> 650 ;
651 [label="X[6] <= 0.424\nentropy = 0.414\nsamples = 7\nvalue = [1, 11]"] ;
650 -> 651 ;
652 [label="entropy = 0.0\nsamples = 5\nvalue = [0, 8]"] ;
651 -> 652 ;
653 [label="X[2] <= 0.014\nentropy = 0.811\nsamples = 2\nvalue = [1, 3]"] ;
651 -> 653 ;
654 [label="entropy = 0.0\nsamples = 1\nvalue = [1, 0]"] ;
653 -> 654 ;
655 [label="entropy = 0.0\nsamples = 1\nvalue = [0, 3]"] ;
653 -> 655 ;
656 [label="X[6] <= 0.399\nentropy = 0.684\nsamples = 6\nvalue = [9, 2]"] ;
650 -> 656 ;
657 [label="X[2] <= 0.029\nentropy = 0.469\nsamples = 5\nvalue = [9, 1]"] ;
656 -> 657 ;
658 [label="entropy = 0.0\nsamples = 3\nvalue = [6, 0]"] ;
657 -> 658 ;
659 [label="X[1] <= 0.763\nentropy = 0.811\nsamples = 2\nvalue = [3, 1]"] ;
657 -> 659 ;
660 [label="entropy = 0.0\nsamples = 1\nvalue = [3, 0]"] ;
659 -> 660 ;
661 [label="entropy = 0.0\nsamples = 1\nvalue = [0, 1]"] ;
659 -> 661 ;
662 [label="entropy = 0.0\nsamples = 1\nvalue = [0, 1]"] ;
656 -> 662 ;
663 [label="X[2] <= 0.022\nentropy = 0.388\nsamples = 106\nvalue = [12, 146]"] ;
647 -> 663 ;
664 [label="X[3] <= 0.682\nentropy = 0.74\nsamples = 31\nvalue = [9, 34]"] ;
663 -> 664 ;
665 [label="X[1] <= 0.769\nentropy = 0.439\nsamples = 22\nvalue = [3, 30]"] ;
664 -> 665 ;
666 [label="X[1] <= 0.741\nentropy = 0.779\nsamples = 10\nvalue = [3, 10]"] ;
665 -> 666 ;
667 [label="entropy = 0.0\nsamples = 7\nvalue = [0, 10]"] ;
666 -> 667 ;
668 [label="entropy = 0.0\nsamples = 3\nvalue = [3, 0]"] ;
666 -> 668 ;
669 [label="entropy = 0.0\nsamples = 12\nvalue = [0, 20]"] ;
665 -> 669 ;
670 [label="X[2] <= 0.018\nentropy = 0.971\nsamples = 9\nvalue = [6, 4]"] ;
664 -> 670 ;
671 [label="entropy = 0.0\nsamples = 4\nvalue = [5, 0]"] ;
670 -> 671 ;
672 [label="X[4] <= 0.368\nentropy = 0.722\nsamples = 5\nvalue = [1, 4]"] ;
670 -> 672 ;
673 [label="entropy = 0.0\nsamples = 4\nvalue = [0, 4]"] ;
672 -> 673 ;
674 [label="entropy = 0.0\nsamples = 1\nvalue = [1, 0]"] ;
672 -> 674 ;
675 [label="X[6] <= 0.37\nentropy = 0.174\nsamples = 75\nvalue = [3, 112]"] ;
663 -> 675 ;
676 [label="X[1] <= 0.743\nentropy = 0.247\nsamples = 47\nvalue = [3, 70]"] ;
675 -> 676 ;
677 [label="X[1] <= 0.741\nentropy = 0.544\nsamples = 20\nvalue = [3, 21]"] ;
676 -> 677 ;
678 [label="X[4] <= 0.33\nentropy = 0.426\nsamples = 19\nvalue = [2, 21]"] ;
677 -> 678 ;
679 [label="X[0] <= 0.5\nentropy = 1.0\nsamples = 2\nvalue = [1, 1]"] ;
678 -> 679 ;
680 [label="entropy = 0.0\nsamples = 1\nvalue = [0, 1]"] ;
679 -> 680 ;
681 [label="entropy = 0.0\nsamples = 1\nvalue = [1, 0]"] ;
679 -> 681 ;
682 [label="X[3] <= 0.714\nentropy = 0.276\nsamples = 17\nvalue = [1, 20]"] ;
678 -> 682 ;
683 [label="X[5] <= 0.194\nentropy = 0.811\nsamples = 4\nvalue = [1, 3]"] ;
682 -> 683 ;
684 [label="entropy = 0.0\nsamples = 3\nvalue = [0, 3]"] ;
683 -> 684 ;
685 [label="entropy = 0.0\nsamples = 1\nvalue = [1, 0]"] ;
683 -> 685 ;
686 [label="entropy = 0.0\nsamples = 13\nvalue = [0, 17]"] ;
682 -> 686 ;
687 [label="entropy = 0.0\nsamples = 1\nvalue = [1, 0]"] ;
677 -> 687 ;
688 [label="entropy = 0.0\nsamples = 27\nvalue = [0, 49]"] ;
676 -> 688 ;
689 [label="entropy = 0.0\nsamples = 28\nvalue = [0, 42]"] ;
675 -> 689 ;
690 [label="X[3] <= 0.855\nentropy = 0.918\nsamples = 31\nvalue = [18, 36]"] ;
508 -> 690 ;
691 [label="X[1] <= 0.584\nentropy = 0.811\nsamples = 26\nvalue = [12, 36]"] ;
690 -> 691 ;
692 [label="X[1] <= 0.076\nentropy = 0.971\nsamples = 7\nvalue = [9, 6]"] ;
691 -> 692 ;
693 [label="entropy = 0.0\nsamples = 2\nvalue = [0, 5]"] ;
692 -> 693 ;
694 [label="X[6] <= 0.417\nentropy = 0.469\nsamples = 5\nvalue = [9, 1]"] ;
692 -> 694 ;
695 [label="entropy = 0.0\nsamples = 3\nvalue = [7, 0]"] ;
694 -> 695 ;
696 [label="X[1] <= 0.3\nentropy = 0.918\nsamples = 2\nvalue = [2, 1]"] ;
694 -> 696 ;
697 [label="entropy = 0.0\nsamples = 1\nvalue = [0, 1]"] ;
696 -> 697 ;
698 [label="entropy = 0.0\nsamples = 1\nvalue = [2, 0]"] ;
696 -> 698 ;
699 [label="X[4] <= 0.358\nentropy = 0.439\nsamples = 19\nvalue = [3, 30]"] ;
691 -> 699 ;
700 [label="X[2] <= 0.059\nentropy = 0.75\nsamples = 9\nvalue = [3, 11]"] ;
699 -> 700 ;
701 [label="entropy = 0.0\nsamples = 2\nvalue = [3, 0]"] ;
700 -> 701 ;
702 [label="entropy = 0.0\nsamples = 7\nvalue = [0, 11]"] ;
700 -> 702 ;
703 [label="entropy = 0.0\nsamples = 10\nvalue = [0, 19]"] ;
699 -> 703 ;
704 [label="entropy = 0.0\nsamples = 5\nvalue = [6, 0]"] ;
690 -> 704 ;
705 [label="entropy = 0.0\nsamples = 3\nvalue = [5, 0]"] ;
507 -> 705 ;
706 [label="entropy = 0.0\nsamples = 39\nvalue = [0, 65]"] ;
506 -> 706 ;
}