digraph Tree {
node [shape=box] ;
0 [label="X[1] <= 0.529\nentropy = 0.969\nsamples = 2990\nvalue = [2884, 1899]"] ;
1 [label="X[5] <= 0.156\nentropy = 0.727\nsamples = 1686\nvalue = [2157, 548]"] ;
0 -> 1 [labeldistance=2.5, labelangle=45, headlabel="True"] ;
2 [label="X[4] <= 0.284\nentropy = 0.539\nsamples = 1503\nvalue = [2109, 297]"] ;
1 -> 2 ;
3 [label="X[6] <= 0.497\nentropy = 0.607\nsamples = 117\nvalue = [28, 160]"] ;
2 -> 3 ;
4 [label="X[5] <= 0.094\nentropy = 0.637\nsamples = 111\nvalue = [28, 146]"] ;
3 -> 4 ;
5 [label="X[1] <= 0.514\nentropy = 0.799\nsamples = 62\nvalue = [23, 72]"] ;
4 -> 5 ;
6 [label="X[1] <= 0.132\nentropy = 0.689\nsamples = 57\nvalue = [16, 71]"] ;
5 -> 6 ;
7 [label="X[3] <= 0.755\nentropy = 0.426\nsamples = 31\nvalue = [4, 42]"] ;
6 -> 7 ;
8 [label="X[5] <= 0.09\nentropy = 0.271\nsamples = 29\nvalue = [2, 41]"] ;
7 -> 8 ;
9 [label="X[4] <= 0.274\nentropy = 0.165\nsamples = 27\nvalue = [1, 40]"] ;
8 -> 9 ;
10 [label="entropy = 0.0\nsamples = 24\nvalue = [0, 38]"] ;
9 -> 10 ;
11 [label="X[6] <= 0.343\nentropy = 0.918\nsamples = 3\nvalue = [1, 2]"] ;
9 -> 11 ;
12 [label="entropy = 0.0\nsamples = 1\nvalue = [0, 1]"] ;
11 -> 12 ;
13 [label="X[5] <= 0.03\nentropy = 1.0\nsamples = 2\nvalue = [1, 1]"] ;
11 -> 13 ;
14 [label="entropy = 0.0\nsamples = 1\nvalue = [1, 0]"] ;
13 -> 14 ;
15 [label="entropy = 0.0\nsamples = 1\nvalue = [0, 1]"] ;
13 -> 15 ;
16 [label="X[6] <= 0.379\nentropy = 1.0\nsamples = 2\nvalue = [1, 1]"] ;
8 -> 16 ;
17 [label="entropy = 0.0\nsamples = 1\nvalue = [0, 1]"] ;
16 -> 17 ;
18 [label="entropy = 0.0\nsamples = 1\nvalue = [1, 0]"] ;
16 -> 18 ;
19 [label="X[2] <= 0.028\nentropy = 0.918\nsamples = 2\nvalue = [2, 1]"] ;
7 -> 19 ;
20 [label="entropy = 0.0\nsamples = 1\nvalue = [2, 0]"] ;
19 -> 20 ;
21 [label="entropy = 0.0\nsamples = 1\nvalue = [0, 1]"] ;
19 -> 21 ;
22 [label="X[6] <= 0.468\nentropy = 0.872\nsamples = 26\nvalue = [12, 29]"] ;
6 -> 22 ;
23 [label="X[5] <= 0.039\nentropy = 0.79\nsamples = 25\nvalue = [9, 29]"] ;
22 -> 23 ;
24 [label="X[4] <= 0.274\nentropy = 0.323\nsamples = 10\nvalue = [1, 16]"] ;
23 -> 24 ;
25 [label="entropy = 0.0\nsamples = 8\nvalue = [0, 15]"] ;
24 -> 25 ;
26 [label="X[0] <= 0.5\nentropy = 1.0\nsamples = 2\nvalue = [1, 1]"] ;
24 -> 26 ;
27 [label="entropy = 0.0\nsamples = 1\nvalue = [0, 1]"] ;
26 -> 27 ;
28 [label="entropy = 0.0\nsamples = 1\nvalue = [1, 0]"] ;
26 -> 28 ;
29 [label="X[3] <= 0.4\nentropy = 0.959\nsamples = 15\nvalue = [8, 13]"] ;
23 -> 29 ;
30 [label="entropy = 0.0\nsamples = 8\nvalue = [0, 11]"] ;
29 -> 30 ;
31 [label="X[1] <= 0.155\nentropy = 0.722\nsamples = 7\nvalue = [8, 2]"] ;
29 -> 31 ;
32 [label="entropy = 0.0\nsamples = 3\nvalue = [5, 0]"] ;
31 -> 32 ;
33 [label="X[5] <= 0.058\nentropy = 0.971\nsamples = 4\nvalue = [3, 2]"] ;
31 -> 33 ;
34 [label="entropy = 0.0\nsamples = 2\nvalue = [3, 0]"] ;
33 -> 34 ;
35 [label="entropy = 0.0\nsamples = 2\nvalue = [0, 2]"] ;
33 -> 35 ;
36 [label="entropy = 0.0\nsamples = 1\nvalue = [3, 0]"] ;
22 -> 36 ;
37 [label="X[4] <= 0.236\nentropy = 0.544\nsamples = 5\nvalue = [7, 1]"] ;
5 -> 37 ;
38 [label="entropy = 0.0\nsamples = 4\nvalue = [7, 0]"] ;
37 -> 38 ;
39 [label="entropy = 0.0\nsamples = 1\nvalue = [0, 1]"] ;
37 -> 39 ;
40 [label="X[5] <= 0.14\nentropy = 0.34\nsamples = 49\nvalue = [5, 74]"] ;
4 -> 40 ;
41 [label="X[5] <= 0.139\nentropy = 0.429\nsamples = 36\nvalue = [5, 52]"] ;
40 -> 41 ;
42 [label="X[2] <= 0.002\nentropy = 0.305\nsamples = 35\nvalue = [3, 52]"] ;
41 -> 42 ;
43 [label="X[3] <= 0.495\nentropy = 0.918\nsamples = 2\nvalue = [1, 2]"] ;
42 -> 43 ;
44 [label="entropy = 0.0\nsamples = 1\nvalue = [0, 2]"] ;
43 -> 44 ;
45 [label="entropy = 0.0\nsamples = 1\nvalue = [1, 0]"] ;
43 -> 45 ;
46 [label="X[6] <= 0.353\nentropy = 0.235\nsamples = 33\nvalue = [2, 50]"] ;
42 -> 46 ;
47 [label="X[2] <= 0.014\nentropy = 0.65\nsamples = 10\nvalue = [2, 10]"] ;
46 -> 47 ;
48 [label="entropy = 0.0\nsamples = 4\nvalue = [0, 4]"] ;
47 -> 48 ;
49 [label="X[0] <= 0.5\nentropy = 0.811\nsamples = 6\nvalue = [2, 6]"] ;
47 -> 49 ;
50 [label="entropy = 0.0\nsamples = 3\nvalue = [0, 4]"] ;
49 -> 50 ;
51 [label="X[1] <= 0.48\nentropy = 1.0\nsamples = 3\nvalue = [2, 2]"] ;
49 -> 51 ;
52 [label="entropy = 0.0\nsamples = 2\nvalue = [2, 0]"] ;
51 -> 52 ;
53 [label="entropy = 0.0\nsamples = 1\nvalue = [0, 2]"] ;
51 -> 53 ;
54 [label="entropy = 0.0\nsamples = 23\nvalue = [0, 40]"] ;
46 -> 54 ;
55 [label="entropy = 0.0\nsamples = 1\nvalue = [2, 0]"] ;
41 -> 55 ;
56 [label="entropy = 0.0\nsamples = 13\nvalue = [0, 22]"] ;
40 -> 56 ;
57 [label="entropy = 0.0\nsamples = 6\nvalue = [0, 14]"] ;
3 -> 57 ;
58 [label="X[5] <= 0.153\nentropy = 0.334\nsamples = 1386\nvalue = [2081, 137]"] ;
2 -> 58 ;
59 [label="X[6] <= 0.44\nentropy = 0.764\nsamples = 69\nvalue = [24, 84]"] ;
58 -> 59 ;
60 [label="X[1] <= 0.069\nentropy = 0.68\nsamples = 62\nvalue = [18, 82]"] ;
59 -> 60 ;
61 [label="entropy = 0.0\nsamples = 13\nvalue = [0, 23]"] ;
60 -> 61 ;
62 [label="X[2] <= 0.024\nentropy = 0.785\nsamples = 49\nvalue = [18, 59]"] ;
60 -> 62 ;
63 [label="X[3] <= 0.641\nentropy = 0.359\nsamples = 30\nvalue = [3, 41]"] ;
62 -> 63 ;
64 [label="X[0] <= 0.5\nentropy = 0.162\nsamples = 29\nvalue = [1, 41]"] ;
63 -> 64 ;
65 [label="entropy = 0.0\nsamples = 18\nvalue = [0, 27]"] ;
64 -> 65 ;
66 [label="X[5] <= 0.085\nentropy = 0.353\nsamples = 11\nvalue = [1, 14]"] ;
64 -> 66 ;
67 [label="entropy = 0.0\nsamples = 8\nvalue = [0, 11]"] ;
66 -> 67 ;
68 [label="X[1] <= 0.194\nentropy = 0.811\nsamples = 3\nvalue = [1, 3]"] ;
66 -> 68 ;
69 [label="entropy = 0.0\nsamples = 1\nvalue = [1, 0]"] ;
68 -> 69 ;
70 [label="entropy = 0.0\nsamples = 2\nvalue = [0, 3]"] ;
68 -> 70 ;
71 [label="entropy = 0.0\nsamples = 1\nvalue = [2, 0]"] ;
63 -> 71 ;
72 [label="X[6] <= 0.431\nentropy = 0.994\nsamples = 19\nvalue = [15, 18]"] ;
62 -> 72 ;
73 [label="X[3] <= 0.541\nentropy = 0.991\nsamples = 16\nvalue = [15, 12]"] ;
72 -> 73 ;
74 [label="X[5] <= 0.049\nentropy = 0.874\nsamples = 11\nvalue = [12, 5]"] ;
73 -> 74 ;
75 [label="entropy = 0.0\nsamples = 4\nvalue = [5, 0]"] ;
74 -> 75 ;
76 [label="X[6] <= 0.381\nentropy = 0.98\nsamples = 7\nvalue = [7, 5]"] ;
74 -> 76 ;
77 [label="X[5] <= 0.11\nentropy = 0.65\nsamples = 3\nvalue = [5, 1]"] ;
76 -> 77 ;
78 [label="entropy = 0.0\nsamples = 1\nvalue = [3, 0]"] ;
77 -> 78 ;
79 [label="X[3] <= 0.409\nentropy = 0.918\nsamples = 2\nvalue = [2, 1]"] ;
77 -> 79 ;
80 [label="entropy = 0.0\nsamples = 1\nvalue = [0, 1]"] ;
79 -> 80 ;
81 [label="entropy = 0.0\nsamples = 1\nvalue = [2, 0]"] ;
79 -> 81 ;
82 [label="X[2] <= 0.028\nentropy = 0.918\nsamples = 4\nvalue = [2, 4]"] ;
76 -> 82 ;
83 [label="entropy = 0.0\nsamples = 1\nvalue = [0, 3]"] ;
82 -> 83 ;
84 [label="X[6] <= 0.412\nentropy = 0.918\nsamples = 3\nvalue = [2, 1]"] ;
82 -> 84 ;
85 [label="entropy = 0.0\nsamples = 1\nvalue = [1, 0]"] ;
84 -> 85 ;
86 [label="X[6] <= 0.426\nentropy = 1.0\nsamples = 2\nvalue = [1, 1]"] ;
84 -> 86 ;
87 [label="entropy = 0.0\nsamples = 1\nvalue = [0, 1]"] ;
86 -> 87 ;
88 [label="entropy = 0.0\nsamples = 1\nvalue = [1, 0]"] ;
86 -> 88 ;
89 [label="X[3] <= 0.627\nentropy = 0.881\nsamples = 5\nvalue = [3, 7]"] ;
73 -> 89 ;
90 [label="entropy = 0.0\nsamples = 3\nvalue = [0, 7]"] ;
89 -> 90 ;
91 [label="entropy = 0.0\nsamples = 2\nvalue = [3, 0]"] ;
89 -> 91 ;
92 [label="entropy = 0.0\nsamples = 3\nvalue = [0, 6]"] ;
72 -> 92 ;
93 [label="X[4] <= 0.783\nentropy = 0.811\nsamples = 7\nvalue = [6, 2]"] ;
59 -> 93 ;
94 [label="X[3] <= 0.4\nentropy = 0.592\nsamples = 6\nvalue = [6, 1]"] ;
93 -> 94 ;
95 [label="X[6] <= 0.583\nentropy = 1.0\nsamples = 2\nvalue = [1, 1]"] ;
94 -> 95 ;
96 [label="entropy = 0.0\nsamples = 1\nvalue = [0, 1]"] ;
95 -> 96 ;
97 [label="entropy = 0.0\nsamples = 1\nvalue = [1, 0]"] ;
95 -> 97 ;
98 [label="entropy = 0.0\nsamples = 4\nvalue = [5, 0]"] ;
94 -> 98 ;
99 [label="entropy = 0.0\nsamples = 1\nvalue = [0, 1]"] ;
93 -> 99 ;
100 [label="X[1] <= 0.222\nentropy = 0.169\nsamples = 1317\nvalue = [2057, 53]"] ;
58 -> 100 ;
101 [label="X[2] <= 0.0\nentropy = 0.078\nsamples = 721\nvalue = [1138, 11]"] ;
100 -> 101 ;
102 [label="X[3] <= 0.182\nentropy = 0.387\nsamples = 45\nvalue = [61, 5]"] ;
101 -> 102 ;
103 [label="entropy = 0.0\nsamples = 20\nvalue = [27, 0]"] ;
102 -> 103 ;
104 [label="X[0] <= 0.5\nentropy = 0.552\nsamples = 25\nvalue = [34, 5]"] ;
102 -> 104 ;
105 [label="X[3] <= 0.2\nentropy = 0.571\nsamples = 23\nvalue = [32, 5]"] ;
104 -> 105 ;
106 [label="entropy = 0.0\nsamples = 1\nvalue = [0, 3]"] ;
105 -> 106 ;
107 [label="X[1] <= 0.004\nentropy = 0.323\nsamples = 22\nvalue = [32, 2]"] ;
105 -> 107 ;
108 [label="X[1] <= 0.003\nentropy = 0.811\nsamples = 5\nvalue = [6, 2]"] ;
107 -> 108 ;
109 [label="entropy = 0.0\nsamples = 4\nvalue = [6, 0]"] ;
108 -> 109 ;
110 [label="entropy = 0.0\nsamples = 1\nvalue = [0, 2]"] ;
108 -> 110 ;
111 [label="entropy = 0.0\nsamples = 17\nvalue = [26, 0]"] ;
107 -> 111 ;
112 [label="entropy = 0.0\nsamples = 2\nvalue = [2, 0]"] ;
104 -> 112 ;
113 [label="X[3] <= 0.159\nentropy = 0.049\nsamples = 676\nvalue = [1077, 6]"] ;
101 -> 113 ;
114 [label="entropy = 0.0\nsamples = 435\nvalue = [705, 0]"] ;
113 -> 114 ;
115 [label="X[2] <= 0.01\nentropy = 0.118\nsamples = 241\nvalue = [372, 6]"] ;
113 -> 115 ;
116 [label="entropy = 0.0\nsamples = 124\nvalue = [204, 0]"] ;
115 -> 116 ;
117 [label="X[3] <= 0.168\nentropy = 0.216\nsamples = 117\nvalue = [168, 6]"] ;
115 -> 117 ;
118 [label="X[1] <= 0.186\nentropy = 0.954\nsamples = 5\nvalue = [5, 3]"] ;
117 -> 118 ;
119 [label="entropy = 0.0\nsamples = 2\nvalue = [0, 3]"] ;
118 -> 119 ;
120 [label="entropy = 0.0\nsamples = 3\nvalue = [5, 0]"] ;
118 -> 120 ;
121 [label="X[3] <= 0.405\nentropy = 0.13\nsamples = 112\nvalue = [163, 3]"] ;
117 -> 121 ;
122 [label="X[3] <= 0.377\nentropy = 0.215\nsamples = 59\nvalue = [85, 3]"] ;
121 -> 122 ;
123 [label="X[0] <= 0.5\nentropy = 0.099\nsamples = 52\nvalue = [77, 1]"] ;
122 -> 123 ;
124 [label="X[3] <= 0.259\nentropy = 0.222\nsamples = 18\nvalue = [27, 1]"] ;
123 -> 124 ;
125 [label="entropy = 0.0\nsamples = 11\nvalue = [19, 0]"] ;
124 -> 125 ;
126 [label="X[1] <= 0.045\nentropy = 0.503\nsamples = 7\nvalue = [8, 1]"] ;
124 -> 126 ;
127 [label="entropy = 0.0\nsamples = 1\nvalue = [0, 1]"] ;
126 -> 127 ;
128 [label="entropy = 0.0\nsamples = 6\nvalue = [8, 0]"] ;
126 -> 128 ;
129 [label="entropy = 0.0\nsamples = 34\nvalue = [50, 0]"] ;
123 -> 129 ;
130 [label="X[0] <= 0.5\nentropy = 0.722\nsamples = 7\nvalue = [8, 2]"] ;
122 -> 130 ;
131 [label="X[1] <= 0.063\nentropy = 0.592\nsamples = 5\nvalue = [6, 1]"] ;
130 -> 131 ;
132 [label="entropy = 0.0\nsamples = 1\nvalue = [0, 1]"] ;
131 -> 132 ;
133 [label="entropy = 0.0\nsamples = 4\nvalue = [6, 0]"] ;
131 -> 133 ;
134 [label="X[2] <= 0.021\nentropy = 0.918\nsamples = 2\nvalue = [2, 1]"] ;
130 -> 134 ;
135 [label="entropy = 0.0\nsamples = 1\nvalue = [0, 1]"] ;
134 -> 135 ;
136 [label="entropy = 0.0\nsamples = 1\nvalue = [2, 0]"] ;
134 -> 136 ;
137 [label="entropy = 0.0\nsamples = 53\nvalue = [78, 0]"] ;
121 -> 137 ;
138 [label="X[0] <= 0.5\nentropy = 0.259\nsamples = 596\nvalue = [919, 42]"] ;
100 -> 138 ;
139 [label="X[2] <= 0.007\nentropy = 0.262\nsamples = 283\nvalue = [430, 20]"] ;
138 -> 139 ;
140 [label="X[3] <= 0.241\nentropy = 0.419\nsamples = 105\nvalue = [140, 13]"] ;
139 -> 140 ;
141 [label="entropy = 0.0\nsamples = 32\nvalue = [49, 0]"] ;
140 -> 141 ;
142 [label="X[2] <= 0.006\nentropy = 0.544\nsamples = 73\nvalue = [91, 13]"] ;
140 -> 142 ;
143 [label="X[1] <= 0.269\nentropy = 0.297\nsamples = 55\nvalue = [72, 4]"] ;
142 -> 143 ;
144 [label="X[2] <= 0.005\nentropy = 0.971\nsamples = 4\nvalue = [2, 3]"] ;
143 -> 144 ;
145 [label="entropy = 0.0\nsamples = 2\nvalue = [2, 0]"] ;
144 -> 145 ;
146 [label="entropy = 0.0\nsamples = 2\nvalue = [0, 3]"] ;
144 -> 146 ;
147 [label="X[3] <= 0.323\nentropy = 0.107\nsamples = 51\nvalue = [70, 1]"] ;
143 -> 147 ;
148 [label="entropy = 0.0\nsamples = 31\nvalue = [48, 0]"] ;
147 -> 148 ;
149 [label="X[3] <= 0.332\nentropy = 0.258\nsamples = 20\nvalue = [22, 1]"] ;
147 -> 149 ;
150 [label="X[1] <= 0.377\nentropy = 0.811\nsamples = 4\nvalue = [3, 1]"] ;
149 -> 150 ;
151 [label="entropy = 0.0\nsamples = 2\nvalue = [2, 0]"] ;
150 -> 151 ;
152 [label="X[1] <= 0.43\nentropy = 1.0\nsamples = 2\nvalue = [1, 1]"] ;
150 -> 152 ;
153 [label="entropy = 0.0\nsamples = 1\nvalue = [0, 1]"] ;
152 -> 153 ;
154 [label="entropy = 0.0\nsamples = 1\nvalue = [1, 0]"] ;
152 -> 154 ;
155 [label="entropy = 0.0\nsamples = 16\nvalue = [19, 0]"] ;
149 -> 155 ;
156 [label="X[2] <= 0.006\nentropy = 0.906\nsamples = 18\nvalue = [19, 9]"] ;
142 -> 156 ;
157 [label="entropy = 0.0\nsamples = 1\nvalue = [0, 2]"] ;
156 -> 157 ;
158 [label="X[2] <= 0.007\nentropy = 0.84\nsamples = 17\nvalue = [19, 7]"] ;
156 -> 158 ;
159 [label="X[1] <= 0.477\nentropy = 0.738\nsamples = 16\nvalue = [19, 5]"] ;
158 -> 159 ;
160 [label="X[3] <= 0.286\nentropy = 0.371\nsamples = 9\nvalue = [13, 1]"] ;
159 -> 160 ;
161 [label="X[3] <= 0.277\nentropy = 0.65\nsamples = 5\nvalue = [5, 1]"] ;
160 -> 161 ;
162 [label="entropy = 0.0\nsamples = 3\nvalue = [4, 0]"] ;
161 -> 162 ;
163 [label="X[2] <= 0.007\nentropy = 1.0\nsamples = 2\nvalue = [1, 1]"] ;
161 -> 163 ;
164 [label="entropy = 0.0\nsamples = 1\nvalue = [1, 0]"] ;
163 -> 164 ;
165 [label="entropy = 0.0\nsamples = 1\nvalue = [0, 1]"] ;
163 -> 165 ;
166 [label="entropy = 0.0\nsamples = 4\nvalue = [8, 0]"] ;
160 -> 166 ;
167 [label="X[2] <= 0.007\nentropy = 0.971\nsamples = 7\nvalue = [6, 4]"] ;
159 -> 167 ;
168 [label="X[2] <= 0.007\nentropy = 0.918\nsamples = 6\nvalue = [6, 3]"] ;
167 -> 168 ;
169 [label="X[3] <= 0.341\nentropy = 0.954\nsamples = 5\nvalue = [5, 3]"] ;
168 -> 169 ;
170 [label="entropy = 0.0\nsamples = 1\nvalue = [0, 3]"] ;
169 -> 170 ;
171 [label="entropy = 0.0\nsamples = 4\nvalue = [5, 0]"] ;
169 -> 171 ;
172 [label="entropy = 0.0\nsamples = 1\nvalue = [1, 0]"] ;
168 -> 172 ;
173 [label="entropy = 0.0\nsamples = 1\nvalue = [0, 1]"] ;
167 -> 173 ;
174 [label="entropy = 0.0\nsamples = 1\nvalue = [0, 2]"] ;
158 -> 174 ;
175 [label="X[2] <= 0.019\nentropy = 0.161\nsamples = 178\nvalue = [290, 7]"] ;
139 -> 175 ;
176 [label="X[1] <= 0.467\nentropy = 0.109\nsamples = 164\nvalue = [272, 4]"] ;
175 -> 176 ;
177 [label="X[2] <= 0.007\nentropy = 0.042\nsamples = 135\nvalue = [220, 1]"] ;
176 -> 177 ;
178 [label="X[3] <= 0.182\nentropy = 0.242\nsamples = 16\nvalue = [24, 1]"] ;
177 -> 178 ;
179 [label="X[3] <= 0.168\nentropy = 0.918\nsamples = 3\nvalue = [2, 1]"] ;
178 -> 179 ;
180 [label="entropy = 0.0\nsamples = 1\nvalue = [1, 0]"] ;
179 -> 180 ;
181 [label="X[2] <= 0.007\nentropy = 1.0\nsamples = 2\nvalue = [1, 1]"] ;
179 -> 181 ;
182 [label="entropy = 0.0\nsamples = 1\nvalue = [1, 0]"] ;
181 -> 182 ;
183 [label="entropy = 0.0\nsamples = 1\nvalue = [0, 1]"] ;
181 -> 183 ;
184 [label="entropy = 0.0\nsamples = 13\nvalue = [22, 0]"] ;
178 -> 184 ;
185 [label="entropy = 0.0\nsamples = 119\nvalue = [196, 0]"] ;
177 -> 185 ;
186 [label="X[2] <= 0.007\nentropy = 0.305\nsamples = 29\nvalue = [52, 3]"] ;
176 -> 186 ;
187 [label="entropy = 0.0\nsamples = 7\nvalue = [14, 0]"] ;
186 -> 187 ;
188 [label="X[3] <= 0.432\nentropy = 0.378\nsamples = 22\nvalue = [38, 3]"] ;
186 -> 188 ;
189 [label="X[1] <= 0.47\nentropy = 0.503\nsamples = 15\nvalue = [24, 3]"] ;
188 -> 189 ;
190 [label="entropy = 0.0\nsamples = 1\nvalue = [0, 1]"] ;
189 -> 190 ;
191 [label="X[3] <= 0.377\nentropy = 0.391\nsamples = 14\nvalue = [24, 2]"] ;
189 -> 191 ;
192 [label="X[3] <= 0.355\nentropy = 0.592\nsamples = 9\nvalue = [12, 2]"] ;
191 -> 192 ;
193 [label="X[1] <= 0.482\nentropy = 0.811\nsamples = 2\nvalue = [3, 1]"] ;
192 -> 193 ;
194 [label="entropy = 0.0\nsamples = 1\nvalue = [0, 1]"] ;
193 -> 194 ;
195 [label="entropy = 0.0\nsamples = 1\nvalue = [3, 0]"] ;
193 -> 195 ;
196 [label="X[2] <= 0.008\nentropy = 0.469\nsamples = 7\nvalue = [9, 1]"] ;
192 -> 196 ;
197 [label="entropy = 0.0\nsamples = 3\nvalue = [6, 0]"] ;
196 -> 197 ;
198 [label="X[3] <= 0.368\nentropy = 0.811\nsamples = 4\nvalue = [3, 1]"] ;
196 -> 198 ;
199 [label="entropy = 0.0\nsamples = 1\nvalue = [1, 0]"] ;
198 -> 199 ;
200 [label="X[2] <= 0.009\nentropy = 0.918\nsamples = 3\nvalue = [2, 1]"] ;
198 -> 200 ;
201 [label="entropy = 0.0\nsamples = 1\nvalue = [0, 1]"] ;
200 -> 201 ;
202 [label="entropy = 0.0\nsamples = 2\nvalue = [2, 0]"] ;
200 -> 202 ;
203 [label="entropy = 0.0\nsamples = 5\nvalue = [12, 0]"] ;
191 -> 203 ;
204 [label="entropy = 0.0\nsamples = 7\nvalue = [14, 0]"] ;
188 -> 204 ;
205 [label="X[1] <= 0.373\nentropy = 0.592\nsamples = 14\nvalue = [18, 3]"] ;
175 -> 205 ;
206 [label="X[2] <= 0.019\nentropy = 0.845\nsamples = 8\nvalue = [8, 3]"] ;
205 -> 206 ;
207 [label="entropy = 0.0\nsamples = 1\nvalue = [0, 2]"] ;
206 -> 207 ;
208 [label="X[1] <= 0.353\nentropy = 0.503\nsamples = 7\nvalue = [8, 1]"] ;
206 -> 208 ;
209 [label="entropy = 0.0\nsamples = 6\nvalue = [8, 0]"] ;
208 -> 209 ;
210 [label="entropy = 0.0\nsamples = 1\nvalue = [0, 1]"] ;
208 -> 210 ;
211 [label="entropy = 0.0\nsamples = 6\nvalue = [10, 0]"] ;
205 -> 211 ;
212 [label="X[1] <= 0.292\nentropy = 0.256\nsamples = 313\nvalue = [489, 22]"] ;
138 -> 212 ;
213 [label="X[2] <= 0.006\nentropy = 0.45\nsamples = 87\nvalue = [125, 13]"] ;
212 -> 213 ;
214 [label="entropy = 0.0\nsamples = 1\nvalue = [0, 3]"] ;
213 -> 214 ;
215 [label="X[2] <= 0.012\nentropy = 0.381\nsamples = 86\nvalue = [125, 10]"] ;
213 -> 215 ;
216 [label="X[1] <= 0.283\nentropy = 0.216\nsamples = 58\nvalue = [84, 3]"] ;
215 -> 216 ;
217 [label="X[2] <= 0.008\nentropy = 0.102\nsamples = 48\nvalue = [74, 1]"] ;
216 -> 217 ;
218 [label="X[1] <= 0.25\nentropy = 0.222\nsamples = 18\nvalue = [27, 1]"] ;
217 -> 218 ;
219 [label="X[1] <= 0.249\nentropy = 0.469\nsamples = 8\nvalue = [9, 1]"] ;
218 -> 219 ;
220 [label="entropy = 0.0\nsamples = 7\nvalue = [9, 0]"] ;
219 -> 220 ;
221 [label="entropy = 0.0\nsamples = 1\nvalue = [0, 1]"] ;
219 -> 221 ;
222 [label="entropy = 0.0\nsamples = 10\nvalue = [18, 0]"] ;
218 -> 222 ;
223 [label="entropy = 0.0\nsamples = 30\nvalue = [47, 0]"] ;
217 -> 223 ;
224 [label="X[1] <= 0.284\nentropy = 0.65\nsamples = 10\nvalue = [10, 2]"] ;
216 -> 224 ;
225 [label="entropy = 0.0\nsamples = 1\nvalue = [0, 1]"] ;
224 -> 225 ;
226 [label="X[1] <= 0.288\nentropy = 0.439\nsamples = 9\nvalue = [10, 1]"] ;
224 -> 226 ;
227 [label="entropy = 0.0\nsamples = 6\nvalue = [8, 0]"] ;
226 -> 227 ;
228 [label="X[3] <= 0.218\nentropy = 0.918\nsamples = 3\nvalue = [2, 1]"] ;
226 -> 228 ;
229 [label="entropy = 0.0\nsamples = 1\nvalue = [0, 1]"] ;
228 -> 229 ;
230 [label="entropy = 0.0\nsamples = 2\nvalue = [2, 0]"] ;
228 -> 230 ;
231 [label="X[1] <= 0.276\nentropy = 0.599\nsamples = 28\nvalue = [41, 7]"] ;
215 -> 231 ;
232 [label="X[2] <= 0.014\nentropy = 0.316\nsamples = 20\nvalue = [33, 2]"] ;
231 -> 232 ;
233 [label="X[3] <= 0.223\nentropy = 0.811\nsamples = 5\nvalue = [6, 2]"] ;
232 -> 233 ;
234 [label="entropy = 0.0\nsamples = 2\nvalue = [0, 2]"] ;
233 -> 234 ;
235 [label="entropy = 0.0\nsamples = 3\nvalue = [6, 0]"] ;
233 -> 235 ;
236 [label="entropy = 0.0\nsamples = 15\nvalue = [27, 0]"] ;
232 -> 236 ;
237 [label="X[1] <= 0.278\nentropy = 0.961\nsamples = 8\nvalue = [8, 5]"] ;
231 -> 237 ;
238 [label="entropy = 0.0\nsamples = 1\nvalue = [0, 4]"] ;
237 -> 238 ;
239 [label="X[1] <= 0.289\nentropy = 0.503\nsamples = 7\nvalue = [8, 1]"] ;
237 -> 239 ;
240 [label="entropy = 0.0\nsamples = 6\nvalue = [8, 0]"] ;
239 -> 240 ;
241 [label="entropy = 0.0\nsamples = 1\nvalue = [0, 1]"] ;
239 -> 241 ;
242 [label="X[2] <= 0.014\nentropy = 0.164\nsamples = 226\nvalue = [364, 9]"] ;
212 -> 242 ;
243 [label="X[2] <= 0.014\nentropy = 0.25\nsamples = 91\nvalue = [138, 6]"] ;
242 -> 243 ;
244 [label="X[1] <= 0.508\nentropy = 0.185\nsamples = 90\nvalue = [138, 4]"] ;
243 -> 244 ;
245 [label="X[3] <= 0.25\nentropy = 0.151\nsamples = 88\nvalue = [135, 3]"] ;
244 -> 245 ;
246 [label="entropy = 0.0\nsamples = 24\nvalue = [41, 0]"] ;
245 -> 246 ;
247 [label="X[3] <= 0.259\nentropy = 0.199\nsamples = 64\nvalue = [94, 3]"] ;
245 -> 247 ;
248 [label="X[2] <= 0.008\nentropy = 0.918\nsamples = 4\nvalue = [4, 2]"] ;
247 -> 248 ;
249 [label="entropy = 0.0\nsamples = 1\nvalue = [0, 1]"] ;
248 -> 249 ;
250 [label="X[2] <= 0.011\nentropy = 0.722\nsamples = 3\nvalue = [4, 1]"] ;
248 -> 250 ;
251 [label="entropy = 0.0\nsamples = 2\nvalue = [4, 0]"] ;
250 -> 251 ;
252 [label="entropy = 0.0\nsamples = 1\nvalue = [0, 1]"] ;
250 -> 252 ;
253 [label="X[1] <= 0.418\nentropy = 0.087\nsamples = 60\nvalue = [90, 1]"] ;
247 -> 253 ;
254 [label="entropy = 0.0\nsamples = 39\nvalue = [55, 0]"] ;
253 -> 254 ;
255 [label="X[1] <= 0.42\nentropy = 0.183\nsamples = 21\nvalue = [35, 1]"] ;
253 -> 255 ;
256 [label="entropy = 0.0\nsamples = 1\nvalue = [0, 1]"] ;
255 -> 256 ;
257 [label="entropy = 0.0\nsamples = 20\nvalue = [35, 0]"] ;
255 -> 257 ;
258 [label="X[3] <= 0.432\nentropy = 0.811\nsamples = 2\nvalue = [3, 1]"] ;
244 -> 258 ;
259 [label="entropy = 0.0\nsamples = 1\nvalue = [0, 1]"] ;
258 -> 259 ;
260 [label="entropy = 0.0\nsamples = 1\nvalue = [3, 0]"] ;
258 -> 260 ;
261 [label="entropy = 0.0\nsamples = 1\nvalue = [0, 2]"] ;
243 -> 261 ;
262 [label="X[2] <= 0.021\nentropy = 0.101\nsamples = 135\nvalue = [226, 3]"] ;
242 -> 262 ;
263 [label="entropy = 0.0\nsamples = 80\nvalue = [132, 0]"] ;
262 -> 263 ;
264 [label="X[2] <= 0.021\nentropy = 0.199\nsamples = 55\nvalue = [94, 3]"] ;
262 -> 264 ;
265 [label="entropy = 0.0\nsamples = 1\nvalue = [0, 2]"] ;
264 -> 265 ;
266 [label="X[1] <= 0.377\nentropy = 0.084\nsamples = 54\nvalue = [94, 1]"] ;
264 -> 266 ;
267 [label="X[3] <= 0.323\nentropy = 0.258\nsamples = 14\nvalue = [22, 1]"] ;
266 -> 267 ;
268 [label="entropy = 0.0\nsamples = 11\nvalue = [19, 0]"] ;
267 -> 268 ;
269 [label="X[1] <= 0.367\nentropy = 0.811\nsamples = 3\nvalue = [3, 1]"] ;
267 -> 269 ;
270 [label="entropy = 0.0\nsamples = 2\nvalue = [3, 0]"] ;
269 -> 270 ;
271 [label="entropy = 0.0\nsamples = 1\nvalue = [0, 1]"] ;
269 -> 271 ;
272 [label="entropy = 0.0\nsamples = 40\nvalue = [72, 0]"] ;
266 -> 272 ;
273 [label="X[2] <= 0.037\nentropy = 0.636\nsamples = 183\nvalue = [48, 251]"] ;
1 -> 273 ;
274 [label="X[5] <= 0.264\nentropy = 0.546\nsamples = 162\nvalue = [33, 229]"] ;
273 -> 274 ;
275 [label="X[5] <= 0.26\nentropy = 0.622\nsamples = 134\nvalue = [33, 180]"] ;
274 -> 275 ;
276 [label="X[1] <= 0.495\nentropy = 0.559\nsamples = 131\nvalue = [27, 180]"] ;
275 -> 276 ;
277 [label="X[1] <= 0.006\nentropy = 0.483\nsamples = 116\nvalue = [19, 163]"] ;
276 -> 277 ;
278 [label="X[3] <= 0.5\nentropy = 0.918\nsamples = 2\nvalue = [2, 1]"] ;
277 -> 278 ;
279 [label="entropy = 0.0\nsamples = 1\nvalue = [0, 1]"] ;
278 -> 279 ;
280 [label="entropy = 0.0\nsamples = 1\nvalue = [2, 0]"] ;
278 -> 280 ;
281 [label="X[1] <= 0.463\nentropy = 0.453\nsamples = 114\nvalue = [17, 162]"] ;
277 -> 281 ;
282 [label="X[3] <= 0.573\nentropy = 0.489\nsamples = 102\nvalue = [17, 143]"] ;
281 -> 282 ;
283 [label="X[4] <= 0.292\nentropy = 0.355\nsamples = 75\nvalue = [8, 111]"] ;
282 -> 283 ;
284 [label="X[5] <= 0.236\nentropy = 0.49\nsamples = 48\nvalue = [8, 67]"] ;
283 -> 284 ;
285 [label="X[2] <= 0.011\nentropy = 0.619\nsamples = 34\nvalue = [8, 44]"] ;
284 -> 285 ;
286 [label="X[6] <= 0.541\nentropy = 0.345\nsamples = 20\nvalue = [2, 29]"] ;
285 -> 286 ;
287 [label="X[4] <= 0.123\nentropy = 0.211\nsamples = 19\nvalue = [1, 29]"] ;
286 -> 287 ;
288 [label="X[6] <= 0.36\nentropy = 0.544\nsamples = 6\nvalue = [1, 7]"] ;
287 -> 288 ;
289 [label="X[1] <= 0.009\nentropy = 1.0\nsamples = 2\nvalue = [1, 1]"] ;
288 -> 289 ;
290 [label="entropy = 0.0\nsamples = 1\nvalue = [0, 1]"] ;
289 -> 290 ;
291 [label="entropy = 0.0\nsamples = 1\nvalue = [1, 0]"] ;
289 -> 291 ;
292 [label="entropy = 0.0\nsamples = 4\nvalue = [0, 6]"] ;
288 -> 292 ;
293 [label="entropy = 0.0\nsamples = 13\nvalue = [0, 22]"] ;
287 -> 293 ;
294 [label="entropy = 0.0\nsamples = 1\nvalue = [1, 0]"] ;
286 -> 294 ;
295 [label="X[1] <= 0.459\nentropy = 0.863\nsamples = 14\nvalue = [6, 15]"] ;
285 -> 295 ;
296 [label="X[3] <= 0.364\nentropy = 0.65\nsamples = 13\nvalue = [3, 15]"] ;
295 -> 296 ;
297 [label="X[3] <= 0.336\nentropy = 1.0\nsamples = 5\nvalue = [3, 3]"] ;
296 -> 297 ;
298 [label="X[6] <= 0.426\nentropy = 0.971\nsamples = 4\nvalue = [2, 3]"] ;
297 -> 298 ;
299 [label="entropy = 0.0\nsamples = 3\nvalue = [0, 3]"] ;
298 -> 299 ;
300 [label="entropy = 0.0\nsamples = 1\nvalue = [2, 0]"] ;
298 -> 300 ;
301 [label="entropy = 0.0\nsamples = 1\nvalue = [1, 0]"] ;
297 -> 301 ;
302 [label="entropy = 0.0\nsamples = 8\nvalue = [0, 12]"] ;
296 -> 302 ;
303 [label="entropy = 0.0\nsamples = 1\nvalue = [3, 0]"] ;
295 -> 303 ;
304 [label="entropy = 0.0\nsamples = 14\nvalue = [0, 23]"] ;
284 -> 304 ;
305 [label="entropy = 0.0\nsamples = 27\nvalue = [0, 44]"] ;
283 -> 305 ;
306 [label="X[3] <= 0.586\nentropy = 0.759\nsamples = 27\nvalue = [9, 32]"] ;
282 -> 306 ;
307 [label="entropy = 0.0\nsamples = 1\nvalue = [1, 0]"] ;
306 -> 307 ;
308 [label="X[4] <= 0.245\nentropy = 0.722\nsamples = 26\nvalue = [8, 32]"] ;
306 -> 308 ;
309 [label="entropy = 0.0\nsamples = 12\nvalue = [0, 18]"] ;
308 -> 309 ;
310 [label="X[5] <= 0.163\nentropy = 0.946\nsamples = 14\nvalue = [8, 14]"] ;
308 -> 310 ;
311 [label="entropy = 0.0\nsamples = 1\nvalue = [3, 0]"] ;
310 -> 311 ;
312 [label="X[5] <= 0.248\nentropy = 0.831\nsamples = 13\nvalue = [5, 14]"] ;
310 -> 312 ;
313 [label="X[2] <= 0.004\nentropy = 0.544\nsamples = 11\nvalue = [2, 14]"] ;
312 -> 313 ;
314 [label="entropy = 0.0\nsamples = 1\nvalue = [2, 0]"] ;
313 -> 314 ;
315 [label="entropy = 0.0\nsamples = 10\nvalue = [0, 14]"] ;
313 -> 315 ;
316 [label="entropy = 0.0\nsamples = 2\nvalue = [3, 0]"] ;
312 -> 316 ;
317 [label="entropy = 0.0\nsamples = 12\nvalue = [0, 19]"] ;
281 -> 317 ;
318 [label="X[4] <= 0.264\nentropy = 0.904\nsamples = 15\nvalue = [8, 17]"] ;
276 -> 318 ;
319 [label="X[3] <= 0.386\nentropy = 0.918\nsamples = 9\nvalue = [8, 4]"] ;
318 -> 319 ;
320 [label="entropy = 0.0\nsamples = 1\nvalue = [0, 1]"] ;
319 -> 320 ;
321 [label="X[6] <= 0.385\nentropy = 0.845\nsamples = 8\nvalue = [8, 3]"] ;
319 -> 321 ;
322 [label="entropy = 0.0\nsamples = 4\nvalue = [5, 0]"] ;
321 -> 322 ;
323 [label="X[2] <= 0.019\nentropy = 1.0\nsamples = 4\nvalue = [3, 3]"] ;
321 -> 323 ;
324 [label="entropy = 0.0\nsamples = 1\nvalue = [3, 0]"] ;
323 -> 324 ;
325 [label="entropy = 0.0\nsamples = 3\nvalue = [0, 3]"] ;
323 -> 325 ;
326 [label="entropy = 0.0\nsamples = 6\nvalue = [0, 13]"] ;
318 -> 326 ;
327 [label="entropy = 0.0\nsamples = 3\nvalue = [6, 0]"] ;
275 -> 327 ;
328 [label="entropy = 0.0\nsamples = 28\nvalue = [0, 49]"] ;
274 -> 328 ;
329 [label="X[2] <= 0.134\nentropy = 0.974\nsamples = 21\nvalue = [15, 22]"] ;
273 -> 329 ;
330 [label="X[2] <= 0.064\nentropy = 0.996\nsamples = 15\nvalue = [15, 13]"] ;
329 -> 330 ;
331 [label="X[5] <= 0.2\nentropy = 0.918\nsamples = 9\nvalue = [6, 12]"] ;
330 -> 331 ;
332 [label="X[2] <= 0.04\nentropy = 0.811\nsamples = 3\nvalue = [6, 2]"] ;
331 -> 332 ;
333 [label="entropy = 0.0\nsamples = 1\nvalue = [4, 0]"] ;
332 -> 333 ;
334 [label="X[1] <= 0.319\nentropy = 1.0\nsamples = 2\nvalue = [2, 2]"] ;
332 -> 334 ;
335 [label="entropy = 0.0\nsamples = 1\nvalue = [0, 2]"] ;
334 -> 335 ;
336 [label="entropy = 0.0\nsamples = 1\nvalue = [2, 0]"] ;
334 -> 336 ;
337 [label="entropy = 0.0\nsamples = 6\nvalue = [0, 10]"] ;
331 -> 337 ;
338 [label="X[1] <= 0.074\nentropy = 0.469\nsamples = 6\nvalue = [9, 1]"] ;
330 -> 338 ;
339 [label="X[6] <= 0.4\nentropy = 0.918\nsamples = 2\nvalue = [2, 1]"] ;
338 -> 339 ;
340 [label="entropy = 0.0\nsamples = 1\nvalue = [2, 0]"] ;
339 -> 340 ;
341 [label="entropy = 0.0\nsamples = 1\nvalue = [0, 1]"] ;
339 -> 341 ;
342 [label="entropy = 0.0\nsamples = 4\nvalue = [7, 0]"] ;
338 -> 342 ;
343 [label="entropy = 0.0\nsamples = 6\nvalue = [0, 9]"] ;
329 -> 343 ;
344 [label="X[6] <= 0.391\nentropy = 0.934\nsamples = 1304\nvalue = [727, 1351]"] ;
0 -> 344 [labeldistance=2.5, labelangle=-45, headlabel="False"] ;
345 [label="X[3] <= 0.641\nentropy = 0.995\nsamples = 927\nvalue = [670, 798]"] ;
344 -> 345 ;
346 [label="X[3] <= 0.486\nentropy = 0.984\nsamples = 493\nvalue = [454, 336]"] ;
345 -> 346 ;
347 [label="X[6] <= 0.381\nentropy = 0.902\nsamples = 117\nvalue = [135, 63]"] ;
346 -> 347 ;
348 [label="X[1] <= 0.555\nentropy = 0.779\nsamples = 41\nvalue = [15, 50]"] ;
347 -> 348 ;
349 [label="entropy = 0.0\nsamples = 9\nvalue = [0, 14]"] ;
348 -> 349 ;
350 [label="X[5] <= 0.095\nentropy = 0.874\nsamples = 32\nvalue = [15, 36]"] ;
348 -> 350 ;
351 [label="X[4] <= 0.198\nentropy = 0.98\nsamples = 8\nvalue = [7, 5]"] ;
350 -> 351 ;
352 [label="entropy = 0.0\nsamples = 2\nvalue = [0, 4]"] ;
351 -> 352 ;
353 [label="X[3] <= 0.468\nentropy = 0.544\nsamples = 6\nvalue = [7, 1]"] ;
351 -> 353 ;
354 [label="X[1] <= 0.576\nentropy = 0.811\nsamples = 3\nvalue = [3, 1]"] ;
353 -> 354 ;
355 [label="entropy = 0.0\nsamples = 2\nvalue = [3, 0]"] ;
354 -> 355 ;
356 [label="entropy = 0.0\nsamples = 1\nvalue = [0, 1]"] ;
354 -> 356 ;
357 [label="entropy = 0.0\nsamples = 3\nvalue = [4, 0]"] ;
353 -> 357 ;
358 [label="X[2] <= 0.008\nentropy = 0.732\nsamples = 24\nvalue = [8, 31]"] ;
350 -> 358 ;
359 [label="entropy = 0.0\nsamples = 1\nvalue = [2, 0]"] ;
358 -> 359 ;
360 [label="X[5] <= 0.137\nentropy = 0.639\nsamples = 23\nvalue = [6, 31]"] ;
358 -> 360 ;
361 [label="entropy = 0.0\nsamples = 7\nvalue = [0, 12]"] ;
360 -> 361 ;
362 [label="X[4] <= 0.236\nentropy = 0.795\nsamples = 16\nvalue = [6, 19]"] ;
360 -> 362 ;
363 [label="X[2] <= 0.01\nentropy = 0.954\nsamples = 6\nvalue = [5, 3]"] ;
362 -> 363 ;
364 [label="entropy = 0.0\nsamples = 1\nvalue = [0, 2]"] ;
363 -> 364 ;
365 [label="X[2] <= 0.016\nentropy = 0.65\nsamples = 5\nvalue = [5, 1]"] ;
363 -> 365 ;
366 [label="entropy = 0.0\nsamples = 3\nvalue = [3, 0]"] ;
365 -> 366 ;
367 [label="X[3] <= 0.468\nentropy = 0.918\nsamples = 2\nvalue = [2, 1]"] ;
365 -> 367 ;
368 [label="entropy = 0.0\nsamples = 1\nvalue = [0, 1]"] ;
367 -> 368 ;
369 [label="entropy = 0.0\nsamples = 1\nvalue = [2, 0]"] ;
367 -> 369 ;
370 [label="X[5] <= 0.24\nentropy = 0.323\nsamples = 10\nvalue = [1, 16]"] ;
362 -> 370 ;
371 [label="entropy = 0.0\nsamples = 7\nvalue = [0, 12]"] ;
370 -> 371 ;
372 [label="X[0] <= 0.5\nentropy = 0.722\nsamples = 3\nvalue = [1, 4]"] ;
370 -> 372 ;
373 [label="entropy = 0.0\nsamples = 1\nvalue = [1, 0]"] ;
372 -> 373 ;
374 [label="entropy = 0.0\nsamples = 2\nvalue = [0, 4]"] ;
372 -> 374 ;
375 [label="X[4] <= 0.198\nentropy = 0.462\nsamples = 76\nvalue = [120, 13]"] ;
347 -> 375 ;
376 [label="entropy = 0.0\nsamples = 5\nvalue = [0, 7]"] ;
375 -> 376 ;
377 [label="X[4] <= 0.294\nentropy = 0.276\nsamples = 71\nvalue = [120, 6]"] ;
375 -> 377 ;
378 [label="X[2] <= 0.01\nentropy = 0.121\nsamples = 68\nvalue = [120, 2]"] ;
377 -> 378 ;
379 [label="X[1] <= 0.581\nentropy = 0.254\nsamples = 28\nvalue = [45, 2]"] ;
378 -> 379 ;
380 [label="X[2] <= 0.01\nentropy = 0.469\nsamples = 13\nvalue = [18, 2]"] ;
379 -> 380 ;
381 [label="entropy = 0.0\nsamples = 12\nvalue = [18, 0]"] ;
380 -> 381 ;
382 [label="entropy = 0.0\nsamples = 1\nvalue = [0, 2]"] ;
380 -> 382 ;
383 [label="entropy = 0.0\nsamples = 15\nvalue = [27, 0]"] ;
379 -> 383 ;
384 [label="entropy = 0.0\nsamples = 40\nvalue = [75, 0]"] ;
378 -> 384 ;
385 [label="entropy = 0.0\nsamples = 3\nvalue = [0, 4]"] ;
377 -> 385 ;
386 [label="X[4] <= 0.284\nentropy = 0.996\nsamples = 376\nvalue = [319, 273]"] ;
346 -> 386 ;
387 [label="X[6] <= 0.361\nentropy = 0.785\nsamples = 146\nvalue = [54, 177]"] ;
386 -> 387 ;
388 [label="X[4] <= 0.066\nentropy = 0.66\nsamples = 104\nvalue = [27, 131]"] ;
387 -> 388 ;
389 [label="X[5] <= 0.198\nentropy = 1.0\nsamples = 2\nvalue = [1, 1]"] ;
388 -> 389 ;
390 [label="entropy = 0.0\nsamples = 1\nvalue = [1, 0]"] ;
389 -> 390 ;
391 [label="entropy = 0.0\nsamples = 1\nvalue = [0, 1]"] ;
389 -> 391 ;
392 [label="X[5] <= 0.232\nentropy = 0.65\nsamples = 102\nvalue = [26, 130]"] ;
388 -> 392 ;
393 [label="X[5] <= 0.034\nentropy = 0.761\nsamples = 76\nvalue = [26, 92]"] ;
392 -> 393 ;
394 [label="X[1] <= 0.695\nentropy = 1.0\nsamples = 13\nvalue = [10, 10]"] ;
393 -> 394 ;
395 [label="X[2] <= 0.026\nentropy = 0.863\nsamples = 10\nvalue = [10, 4]"] ;
394 -> 395 ;
396 [label="entropy = 0.0\nsamples = 7\nvalue = [10, 0]"] ;
395 -> 396 ;
397 [label="entropy = 0.0\nsamples = 3\nvalue = [0, 4]"] ;
395 -> 397 ;
398 [label="entropy = 0.0\nsamples = 3\nvalue = [0, 6]"] ;
394 -> 398 ;
399 [label="X[2] <= 0.01\nentropy = 0.642\nsamples = 63\nvalue = [16, 82]"] ;
393 -> 399 ;
400 [label="entropy = 0.0\nsamples = 12\nvalue = [0, 27]"] ;
399 -> 400 ;
401 [label="X[5] <= 0.228\nentropy = 0.77\nsamples = 51\nvalue = [16, 55]"] ;
399 -> 401 ;
402 [label="X[3] <= 0.632\nentropy = 0.704\nsamples = 49\nvalue = [13, 55]"] ;
401 -> 402 ;
403 [label="X[1] <= 0.645\nentropy = 0.625\nsamples = 46\nvalue = [10, 54]"] ;
402 -> 403 ;
404 [label="entropy = 0.0\nsamples = 17\nvalue = [0, 26]"] ;
403 -> 404 ;
405 [label="X[6] <= 0.352\nentropy = 0.831\nsamples = 29\nvalue = [10, 28]"] ;
403 -> 405 ;
406 [label="X[3] <= 0.609\nentropy = 0.954\nsamples = 20\nvalue = [9, 15]"] ;
405 -> 406 ;
407 [label="X[1] <= 0.715\nentropy = 1.0\nsamples = 15\nvalue = [9, 9]"] ;
406 -> 407 ;
408 [label="X[5] <= 0.159\nentropy = 0.881\nsamples = 8\nvalue = [7, 3]"] ;
407 -> 408 ;
409 [label="X[3] <= 0.564\nentropy = 0.764\nsamples = 7\nvalue = [7, 2]"] ;
408 -> 409 ;
410 [label="X[4] <= 0.189\nentropy = 0.971\nsamples = 4\nvalue = [3, 2]"] ;
409 -> 410 ;
411 [label="entropy = 0.0\nsamples = 2\nvalue = [3, 0]"] ;
410 -> 411 ;
412 [label="entropy = 0.0\nsamples = 2\nvalue = [0, 2]"] ;
410 -> 412 ;
413 [label="entropy = 0.0\nsamples = 3\nvalue = [4, 0]"] ;
409 -> 413 ;
414 [label="entropy = 0.0\nsamples = 1\nvalue = [0, 1]"] ;
408 -> 414 ;
415 [label="X[5] <= 0.191\nentropy = 0.811\nsamples = 7\nvalue = [2, 6]"] ;
407 -> 415 ;
416 [label="entropy = 0.0\nsamples = 5\nvalue = [0, 6]"] ;
415 -> 416 ;
417 [label="entropy = 0.0\nsamples = 2\nvalue = [2, 0]"] ;
415 -> 417 ;
418 [label="entropy = 0.0\nsamples = 5\nvalue = [0, 6]"] ;
406 -> 418 ;
419 [label="X[0] <= 0.5\nentropy = 0.371\nsamples = 9\nvalue = [1, 13]"] ;
405 -> 419 ;
420 [label="entropy = 0.0\nsamples = 1\nvalue = [1, 0]"] ;
419 -> 420 ;
421 [label="entropy = 0.0\nsamples = 8\nvalue = [0, 13]"] ;
419 -> 421 ;
422 [label="X[6] <= 0.347\nentropy = 0.811\nsamples = 3\nvalue = [3, 1]"] ;
402 -> 422 ;
423 [label="entropy = 0.0\nsamples = 2\nvalue = [3, 0]"] ;
422 -> 423 ;
424 [label="entropy = 0.0\nsamples = 1\nvalue = [0, 1]"] ;
422 -> 424 ;
425 [label="entropy = 0.0\nsamples = 2\nvalue = [3, 0]"] ;
401 -> 425 ;
426 [label="entropy = 0.0\nsamples = 26\nvalue = [0, 38]"] ;
392 -> 426 ;
427 [label="X[2] <= 0.048\nentropy = 0.951\nsamples = 42\nvalue = [27, 46]"] ;
387 -> 427 ;
428 [label="X[5] <= 0.189\nentropy = 0.902\nsamples = 38\nvalue = [21, 45]"] ;
427 -> 428 ;
429 [label="X[6] <= 0.385\nentropy = 0.992\nsamples = 26\nvalue = [21, 26]"] ;
428 -> 429 ;
430 [label="X[4] <= 0.255\nentropy = 0.942\nsamples = 22\nvalue = [14, 25]"] ;
429 -> 430 ;
431 [label="X[2] <= 0.01\nentropy = 0.811\nsamples = 16\nvalue = [7, 21]"] ;
430 -> 431 ;
432 [label="X[4] <= 0.179\nentropy = 0.918\nsamples = 2\nvalue = [4, 2]"] ;
431 -> 432 ;
433 [label="entropy = 0.0\nsamples = 1\nvalue = [4, 0]"] ;
432 -> 433 ;
434 [label="entropy = 0.0\nsamples = 1\nvalue = [0, 2]"] ;
432 -> 434 ;
435 [label="X[5] <= 0.13\nentropy = 0.575\nsamples = 14\nvalue = [3, 19]"] ;
431 -> 435 ;
436 [label="entropy = 0.0\nsamples = 11\nvalue = [0, 18]"] ;
435 -> 436 ;
437 [label="X[2] <= 0.016\nentropy = 0.811\nsamples = 3\nvalue = [3, 1]"] ;
435 -> 437 ;
438 [label="entropy = 0.0\nsamples = 1\nvalue = [0, 1]"] ;
437 -> 438 ;
439 [label="entropy = 0.0\nsamples = 2\nvalue = [3, 0]"] ;
437 -> 439 ;
440 [label="X[2] <= 0.026\nentropy = 0.946\nsamples = 6\nvalue = [7, 4]"] ;
430 -> 440 ;
441 [label="X[1] <= 0.613\nentropy = 0.764\nsamples = 5\nvalue = [7, 2]"] ;
440 -> 441 ;
442 [label="X[4] <= 0.274\nentropy = 0.918\nsamples = 2\nvalue = [1, 2]"] ;
441 -> 442 ;
443 [label="entropy = 0.0\nsamples = 1\nvalue = [1, 0]"] ;
442 -> 443 ;
444 [label="entropy = 0.0\nsamples = 1\nvalue = [0, 2]"] ;
442 -> 444 ;
445 [label="entropy = 0.0\nsamples = 3\nvalue = [6, 0]"] ;
441 -> 445 ;
446 [label="entropy = 0.0\nsamples = 1\nvalue = [0, 2]"] ;
440 -> 446 ;
447 [label="X[5] <= 0.098\nentropy = 0.544\nsamples = 4\nvalue = [7, 1]"] ;
429 -> 447 ;
448 [label="entropy = 0.0\nsamples = 1\nvalue = [0, 1]"] ;
447 -> 448 ;
449 [label="entropy = 0.0\nsamples = 3\nvalue = [7, 0]"] ;
447 -> 449 ;
450 [label="entropy = 0.0\nsamples = 12\nvalue = [0, 19]"] ;
428 -> 450 ;
451 [label="X[2] <= 0.149\nentropy = 0.592\nsamples = 4\nvalue = [6, 1]"] ;
427 -> 451 ;
452 [label="entropy = 0.0\nsamples = 3\nvalue = [6, 0]"] ;
451 -> 452 ;
453 [label="entropy = 0.0\nsamples = 1\nvalue = [0, 1]"] ;
451 -> 453 ;
454 [label="X[2] <= 0.031\nentropy = 0.836\nsamples = 230\nvalue = [265, 96]"] ;
386 -> 454 ;
455 [label="X[1] <= 0.679\nentropy = 0.757\nsamples = 207\nvalue = [251, 70]"] ;
454 -> 455 ;
456 [label="X[3] <= 0.623\nentropy = 0.607\nsamples = 117\nvalue = [166, 29]"] ;
455 -> 456 ;
457 [label="X[4] <= 0.294\nentropy = 0.664\nsamples = 104\nvalue = [139, 29]"] ;
456 -> 457 ;
458 [label="entropy = 0.0\nsamples = 71\nvalue = [113, 0]"] ;
457 -> 458 ;
459 [label="X[6] <= 0.346\nentropy = 0.998\nsamples = 33\nvalue = [26, 29]"] ;
457 -> 459 ;
460 [label="X[3] <= 0.518\nentropy = 0.559\nsamples = 11\nvalue = [20, 3]"] ;
459 -> 460 ;
461 [label="entropy = 0.0\nsamples = 3\nvalue = [7, 0]"] ;
460 -> 461 ;
462 [label="X[2] <= 0.021\nentropy = 0.696\nsamples = 8\nvalue = [13, 3]"] ;
460 -> 462 ;
463 [label="entropy = 0.0\nsamples = 4\nvalue = [10, 0]"] ;
462 -> 463 ;
464 [label="X[3] <= 0.586\nentropy = 1.0\nsamples = 4\nvalue = [3, 3]"] ;
462 -> 464 ;
465 [label="entropy = 0.0\nsamples = 3\nvalue = [0, 3]"] ;
464 -> 465 ;
466 [label="entropy = 0.0\nsamples = 1\nvalue = [3, 0]"] ;
464 -> 466 ;
467 [label="X[3] <= 0.541\nentropy = 0.696\nsamples = 22\nvalue = [6, 26]"] ;
459 -> 467 ;
468 [label="X[2] <= 0.027\nentropy = 0.31\nsamples = 12\nvalue = [1, 17]"] ;
467 -> 468 ;
469 [label="entropy = 0.0\nsamples = 11\nvalue = [0, 17]"] ;
468 -> 469 ;
470 [label="entropy = 0.0\nsamples = 1\nvalue = [1, 0]"] ;
468 -> 470 ;
471 [label="X[2] <= 0.019\nentropy = 0.94\nsamples = 10\nvalue = [5, 9]"] ;
467 -> 471 ;
472 [label="entropy = 0.0\nsamples = 4\nvalue = [0, 7]"] ;
471 -> 472 ;
473 [label="X[2] <= 0.024\nentropy = 0.863\nsamples = 6\nvalue = [5, 2]"] ;
471 -> 473 ;
474 [label="entropy = 0.0\nsamples = 3\nvalue = [4, 0]"] ;
473 -> 474 ;
475 [label="X[1] <= 0.63\nentropy = 0.918\nsamples = 3\nvalue = [1, 2]"] ;
473 -> 475 ;
476 [label="entropy = 0.0\nsamples = 2\nvalue = [0, 2]"] ;
475 -> 476 ;
477 [label="entropy = 0.0\nsamples = 1\nvalue = [1, 0]"] ;
475 -> 477 ;
478 [label="entropy = 0.0\nsamples = 13\nvalue = [27, 0]"] ;
456 -> 478 ;
479 [label="X[6] <= 0.38\nentropy = 0.91\nsamples = 90\nvalue = [85, 41]"] ;
455 -> 479 ;
480 [label="X[5] <= 0.184\nentropy = 0.722\nsamples = 34\nvalue = [10, 40]"] ;
479 -> 480 ;
481 [label="X[2] <= 0.012\nentropy = 0.885\nsamples = 24\nvalue = [10, 23]"] ;
480 -> 481 ;
482 [label="entropy = 0.0\nsamples = 8\nvalue = [0, 10]"] ;
481 -> 482 ;
483 [label="X[5] <= 0.16\nentropy = 0.988\nsamples = 16\nvalue = [10, 13]"] ;
481 -> 483 ;
484 [label="X[5] <= 0.123\nentropy = 0.934\nsamples = 13\nvalue = [7, 13]"] ;
483 -> 484 ;
485 [label="X[3] <= 0.614\nentropy = 1.0\nsamples = 8\nvalue = [7, 7]"] ;
484 -> 485 ;
486 [label="entropy = 0.0\nsamples = 4\nvalue = [0, 6]"] ;
485 -> 486 ;
487 [label="X[3] <= 0.623\nentropy = 0.544\nsamples = 4\nvalue = [7, 1]"] ;
485 -> 487 ;
488 [label="X[5] <= 0.011\nentropy = 0.811\nsamples = 2\nvalue = [3, 1]"] ;
487 -> 488 ;
489 [label="entropy = 0.0\nsamples = 1\nvalue = [0, 1]"] ;
488 -> 489 ;
490 [label="entropy = 0.0\nsamples = 1\nvalue = [3, 0]"] ;
488 -> 490 ;
491 [label="entropy = 0.0\nsamples = 2\nvalue = [4, 0]"] ;
487 -> 491 ;
492 [label="entropy = 0.0\nsamples = 5\nvalue = [0, 6]"] ;
484 -> 492 ;
493 [label="entropy = 0.0\nsamples = 3\nvalue = [3, 0]"] ;
483 -> 493 ;
494 [label="entropy = 0.0\nsamples = 10\nvalue = [0, 17]"] ;
480 -> 494 ;
495 [label="X[4] <= 0.303\nentropy = 0.101\nsamples = 56\nvalue = [75, 1]"] ;
479 -> 495 ;
496 [label="entropy = 0.0\nsamples = 55\nvalue = [75, 0]"] ;
495 -> 496 ;
497 [label="entropy = 0.0\nsamples = 1\nvalue = [0, 1]"] ;
495 -> 497 ;
498 [label="X[4] <= 0.294\nentropy = 0.934\nsamples = 23\nvalue = [14, 26]"] ;
454 -> 498 ;
499 [label="entropy = 0.0\nsamples = 7\nvalue = [12, 0]"] ;
498 -> 499 ;
500 [label="X[3] <= 0.582\nentropy = 0.371\nsamples = 16\nvalue = [2, 26]"] ;
498 -> 500 ;
501 [label="X[4] <= 0.377\nentropy = 0.722\nsamples = 7\nvalue = [2, 8]"] ;
500 -> 501 ;
502 [label="X[2] <= 0.035\nentropy = 0.918\nsamples = 3\nvalue = [2, 1]"] ;
501 -> 502 ;
503 [label="entropy = 0.0\nsamples = 1\nvalue = [0, 1]"] ;
502 -> 503 ;
504 [label="entropy = 0.0\nsamples = 2\nvalue = [2, 0]"] ;
502 -> 504 ;
505 [label="entropy = 0.0\nsamples = 4\nvalue = [0, 7]"] ;
501 -> 505 ;
506 [label="entropy = 0.0\nsamples = 9\nvalue = [0, 18]"] ;
500 -> 506 ;
507 [label="X[3] <= 0.895\nentropy = 0.903\nsamples = 434\nvalue = [216, 462]"] ;
345 -> 507 ;
508 [label="X[5] <= 0.234\nentropy = 0.914\nsamples = 399\nvalue = [208, 424]"] ;
507 -> 508 ;
509 [label="X[4] <= 0.255\nentropy = 0.954\nsamples = 338\nvalue = [202, 337]"] ;
508 -> 509 ;
510 [label="X[3] <= 0.832\nentropy = 0.726\nsamples = 142\nvalue = [43, 170]"] ;
509 -> 510 ;
511 [label="X[0] <= 0.5\nentropy = 0.66\nsamples = 128\nvalue = [33, 160]"] ;
510 -> 511 ;
512 [label="X[5] <= 0.164\nentropy = 0.484\nsamples = 76\nvalue = [13, 111]"] ;
511 -> 512 ;
513 [label="X[1] <= 0.697\nentropy = 0.374\nsamples = 59\nvalue = [7, 90]"] ;
512 -> 513 ;
514 [label="entropy = 0.0\nsamples = 10\nvalue = [0, 15]"] ;
513 -> 514 ;
515 [label="X[5] <= 0.091\nentropy = 0.421\nsamples = 49\nvalue = [7, 75]"] ;
513 -> 515 ;
516 [label="X[4] <= 0.151\nentropy = 0.689\nsamples = 22\nvalue = [7, 31]"] ;
515 -> 516 ;
517 [label="X[3] <= 0.668\nentropy = 0.267\nsamples = 10\nvalue = [1, 21]"] ;
516 -> 517 ;
518 [label="entropy = 0.0\nsamples = 1\nvalue = [1, 0]"] ;
517 -> 518 ;
519 [label="entropy = 0.0\nsamples = 9\nvalue = [0, 21]"] ;
517 -> 519 ;
520 [label="X[2] <= 0.23\nentropy = 0.954\nsamples = 12\nvalue = [6, 10]"] ;
516 -> 520 ;
521 [label="X[1] <= 0.782\nentropy = 1.0\nsamples = 10\nvalue = [6, 6]"] ;
520 -> 521 ;
522 [label="X[6] <= 0.36\nentropy = 0.65\nsamples = 4\nvalue = [5, 1]"] ;
521 -> 522 ;
523 [label="entropy = 0.0\nsamples = 3\nvalue = [5, 0]"] ;
522 -> 523 ;
524 [label="entropy = 0.0\nsamples = 1\nvalue = [0, 1]"] ;
522 -> 524 ;
525 [label="X[3] <= 0.755\nentropy = 0.65\nsamples = 6\nvalue = [1, 5]"] ;
521 -> 525 ;
526 [label="entropy = 0.0\nsamples = 4\nvalue = [0, 4]"] ;
525 -> 526 ;
527 [label="X[5] <= 0.057\nentropy = 1.0\nsamples = 2\nvalue = [1, 1]"] ;
525 -> 527 ;
528 [label="entropy = 0.0\nsamples = 1\nvalue = [1, 0]"] ;
527 -> 528 ;
529 [label="entropy = 0.0\nsamples = 1\nvalue = [0, 1]"] ;
527 -> 529 ;
530 [label="entropy = 0.0\nsamples = 2\nvalue = [0, 4]"] ;
520 -> 530 ;
531 [label="entropy = 0.0\nsamples = 27\nvalue = [0, 44]"] ;
515 -> 531 ;
532 [label="X[5] <= 0.172\nentropy = 0.764\nsamples = 17\nvalue = [6, 21]"] ;
512 -> 532 ;
533 [label="X[3] <= 0.673\nentropy = 0.971\nsamples = 4\nvalue = [6, 4]"] ;
532 -> 533 ;
534 [label="entropy = 0.0\nsamples = 1\nvalue = [0, 4]"] ;
533 -> 534 ;
535 [label="entropy = 0.0\nsamples = 3\nvalue = [6, 0]"] ;
533 -> 535 ;
536 [label="entropy = 0.0\nsamples = 13\nvalue = [0, 17]"] ;
532 -> 536 ;
537 [label="X[2] <= 0.049\nentropy = 0.869\nsamples = 52\nvalue = [20, 49]"] ;
511 -> 537 ;
538 [label="X[1] <= 0.74\nentropy = 0.677\nsamples = 43\nvalue = [10, 46]"] ;
537 -> 538 ;
539 [label="X[3] <= 0.75\nentropy = 0.782\nsamples = 33\nvalue = [10, 33]"] ;
538 -> 539 ;
540 [label="X[2] <= 0.034\nentropy = 0.94\nsamples = 22\nvalue = [10, 18]"] ;
539 -> 540 ;
541 [label="X[3] <= 0.714\nentropy = 1.0\nsamples = 17\nvalue = [10, 10]"] ;
540 -> 541 ;
542 [label="X[4] <= 0.113\nentropy = 0.89\nsamples = 12\nvalue = [4, 9]"] ;
541 -> 542 ;
543 [label="entropy = 0.0\nsamples = 2\nvalue = [3, 0]"] ;
542 -> 543 ;
544 [label="X[5] <= 0.118\nentropy = 0.469\nsamples = 10\nvalue = [1, 9]"] ;
542 -> 544 ;
545 [label="entropy = 0.0\nsamples = 7\nvalue = [0, 7]"] ;
544 -> 545 ;
546 [label="X[1] <= 0.688\nentropy = 0.918\nsamples = 3\nvalue = [1, 2]"] ;
544 -> 546 ;
547 [label="entropy = 0.0\nsamples = 2\nvalue = [0, 2]"] ;
546 -> 547 ;
548 [label="entropy = 0.0\nsamples = 1\nvalue = [1, 0]"] ;
546 -> 548 ;
549 [label="X[3] <= 0.727\nentropy = 0.592\nsamples = 5\nvalue = [6, 1]"] ;
541 -> 549 ;
550 [label="entropy = 0.0\nsamples = 2\nvalue = [4, 0]"] ;
549 -> 550 ;
551 [label="X[2] <= 0.025\nentropy = 0.918\nsamples = 3\nvalue = [2, 1]"] ;
549 -> 551 ;
552 [label="entropy = 0.0\nsamples = 2\nvalue = [2, 0]"] ;
551 -> 552 ;
553 [label="entropy = 0.0\nsamples = 1\nvalue = [0, 1]"] ;
551 -> 553 ;
554 [label="entropy = 0.0\nsamples = 5\nvalue = [0, 8]"] ;
540 -> 554 ;
555 [label="entropy = 0.0\nsamples = 11\nvalue = [0, 15]"] ;
539 -> 555 ;
556 [label="entropy = 0.0\nsamples = 10\nvalue = [0, 13]"] ;
538 -> 556 ;
557 [label="X[4] <= 0.085\nentropy = 0.779\nsamples = 9\nvalue = [10, 3]"] ;
537 -> 557 ;
558 [label="entropy = 0.0\nsamples = 1\nvalue = [0, 1]"] ;
557 -> 558 ;
559 [label="X[3] <= 0.718\nentropy = 0.65\nsamples = 8\nvalue = [10, 2]"] ;
557 -> 559 ;
560 [label="entropy = 0.0\nsamples = 3\nvalue = [6, 0]"] ;
559 -> 560 ;
561 [label="X[3] <= 0.745\nentropy = 0.918\nsamples = 5\nvalue = [4, 2]"] ;
559 -> 561 ;
562 [label="entropy = 0.0\nsamples = 2\nvalue = [0, 2]"] ;
561 -> 562 ;
563 [label="entropy = 0.0\nsamples = 3\nvalue = [4, 0]"] ;
561 -> 563 ;
564 [label="X[6] <= 0.344\nentropy = 1.0\nsamples = 14\nvalue = [10, 10]"] ;
510 -> 564 ;
565 [label="entropy = 0.0\nsamples = 2\nvalue = [3, 0]"] ;
564 -> 565 ;
566 [label="X[5] <= 0.117\nentropy = 0.977\nsamples = 12\nvalue = [7, 10]"] ;
564 -> 566 ;
567 [label="entropy = 0.0\nsamples = 4\nvalue = [0, 6]"] ;
566 -> 567 ;
568 [label="X[1] <= 0.725\nentropy = 0.946\nsamples = 8\nvalue = [7, 4]"] ;
566 -> 568 ;
569 [label="entropy = 0.0\nsamples = 2\nvalue = [0, 3]"] ;
568 -> 569 ;
570 [label="X[1] <= 0.795\nentropy = 0.544\nsamples = 6\nvalue = [7, 1]"] ;
568 -> 570 ;
571 [label="entropy = 0.0\nsamples = 5\nvalue = [7, 0]"] ;
570 -> 571 ;
572 [label="entropy = 0.0\nsamples = 1\nvalue = [0, 1]"] ;
570 -> 572 ;
573 [label="X[4] <= 0.294\nentropy = 1.0\nsamples = 196\nvalue = [159, 167]"] ;
509 -> 573 ;
574 [label="X[5] <= 0.064\nentropy = 0.833\nsamples = 102\nvalue = [128, 46]"] ;
573 -> 574 ;
575 [label="X[6] <= 0.36\nentropy = 0.845\nsamples = 11\nvalue = [6, 16]"] ;
574 -> 575 ;
576 [label="entropy = 0.0\nsamples = 7\nvalue = [0, 12]"] ;
575 -> 576 ;
577 [label="X[2] <= 0.03\nentropy = 0.971\nsamples = 4\nvalue = [6, 4]"] ;
575 -> 577 ;
578 [label="entropy = 0.0\nsamples = 2\nvalue = [6, 0]"] ;
577 -> 578 ;
579 [label="entropy = 0.0\nsamples = 2\nvalue = [0, 4]"] ;
577 -> 579 ;
580 [label="X[4] <= 0.284\nentropy = 0.717\nsamples = 91\nvalue = [122, 30]"] ;
574 -> 580 ;
581 [label="X[5] <= 0.083\nentropy = 0.988\nsamples = 34\nvalue = [39, 30]"] ;
580 -> 581 ;
582 [label="entropy = 0.0\nsamples = 5\nvalue = [10, 0]"] ;
581 -> 582 ;
583 [label="X[6] <= 0.344\nentropy = 1.0\nsamples = 29\nvalue = [29, 30]"] ;
581 -> 583 ;
584 [label="entropy = 0.0\nsamples = 4\nvalue = [13, 0]"] ;
583 -> 584 ;
585 [label="X[3] <= 0.677\nentropy = 0.932\nsamples = 25\nvalue = [16, 30]"] ;
583 -> 585 ;
586 [label="entropy = 0.0\nsamples = 2\nvalue = [4, 0]"] ;
585 -> 586 ;
587 [label="X[4] <= 0.274\nentropy = 0.863\nsamples = 23\nvalue = [12, 30]"] ;
585 -> 587 ;
588 [label="X[2] <= 0.037\nentropy = 0.529\nsamples = 14\nvalue = [3, 22]"] ;
587 -> 588 ;
589 [label="X[2] <= 0.024\nentropy = 0.276\nsamples = 12\nvalue = [1, 20]"] ;
588 -> 589 ;
590 [label="entropy = 0.0\nsamples = 7\nvalue = [0, 10]"] ;
589 -> 590 ;
591 [label="X[5] <= 0.105\nentropy = 0.439\nsamples = 5\nvalue = [1, 10]"] ;
589 -> 591 ;
592 [label="entropy = 0.0\nsamples = 1\nvalue = [1, 0]"] ;
591 -> 592 ;
593 [label="entropy = 0.0\nsamples = 4\nvalue = [0, 10]"] ;
591 -> 593 ;
594 [label="X[5] <= 0.192\nentropy = 1.0\nsamples = 2\nvalue = [2, 2]"] ;
588 -> 594 ;
595 [label="entropy = 0.0\nsamples = 1\nvalue = [0, 2]"] ;
594 -> 595 ;
596 [label="entropy = 0.0\nsamples = 1\nvalue = [2, 0]"] ;
594 -> 596 ;
597 [label="X[1] <= 0.667\nentropy = 0.998\nsamples = 9\nvalue = [9, 8]"] ;
587 -> 597 ;
598 [label="entropy = 0.0\nsamples = 2\nvalue = [0, 2]"] ;
597 -> 598 ;
599 [label="X[6] <= 0.352\nentropy = 0.971\nsamples = 7\nvalue = [9, 6]"] ;
597 -> 599 ;
600 [label="entropy = 0.0\nsamples = 1\nvalue = [0, 3]"] ;
599 -> 600 ;
601 [label="X[6] <= 0.367\nentropy = 0.811\nsamples = 6\nvalue = [9, 3]"] ;
599 -> 601 ;
602 [label="entropy = 0.0\nsamples = 3\nvalue = [7, 0]"] ;
601 -> 602 ;
603 [label="X[6] <= 0.385\nentropy = 0.971\nsamples = 3\nvalue = [2, 3]"] ;
601 -> 603 ;
604 [label="entropy = 0.0\nsamples = 2\nvalue = [0, 3]"] ;
603 -> 604 ;
605 [label="entropy = 0.0\nsamples = 1\nvalue = [2, 0]"] ;
603 -> 605 ;
606 [label="entropy = 0.0\nsamples = 57\nvalue = [83, 0]"] ;
580 -> 606 ;
607 [label="X[4] <= 0.443\nentropy = 0.73\nsamples = 94\nvalue = [31, 121]"] ;
573 -> 607 ;
608 [label="X[4] <= 0.406\nentropy = 0.818\nsamples = 77\nvalue = [30, 88]"] ;
607 -> 608 ;
609 [label="X[1] <= 0.867\nentropy = 0.808\nsamples = 76\nvalue = [29, 88]"] ;
608 -> 609 ;
610 [label="X[3] <= 0.75\nentropy = 0.736\nsamples = 73\nvalue = [23, 88]"] ;
609 -> 610 ;
611 [label="X[3] <= 0.668\nentropy = 0.554\nsamples = 47\nvalue = [9, 61]"] ;
610 -> 611 ;
612 [label="X[4] <= 0.349\nentropy = 0.94\nsamples = 8\nvalue = [5, 9]"] ;
611 -> 612 ;
613 [label="X[1] <= 0.8\nentropy = 0.954\nsamples = 3\nvalue = [5, 3]"] ;
612 -> 613 ;
614 [label="X[6] <= 0.378\nentropy = 0.65\nsamples = 2\nvalue = [5, 1]"] ;
613 -> 614 ;
615 [label="entropy = 0.0\nsamples = 1\nvalue = [5, 0]"] ;
614 -> 615 ;
616 [label="entropy = 0.0\nsamples = 1\nvalue = [0, 1]"] ;
614 -> 616 ;
617 [label="entropy = 0.0\nsamples = 1\nvalue = [0, 2]"] ;
613 -> 617 ;
618 [label="entropy = 0.0\nsamples = 5\nvalue = [0, 6]"] ;
612 -> 618 ;
619 [label="X[2] <= 0.027\nentropy = 0.371\nsamples = 39\nvalue = [4, 52]"] ;
611 -> 619 ;
620 [label="entropy = 0.0\nsamples = 14\nvalue = [0, 23]"] ;
619 -> 620 ;
621 [label="X[6] <= 0.343\nentropy = 0.533\nsamples = 25\nvalue = [4, 29]"] ;
619 -> 621 ;
622 [label="entropy = 0.0\nsamples = 15\nvalue = [0, 21]"] ;
621 -> 622 ;
623 [label="X[6] <= 0.366\nentropy = 0.918\nsamples = 10\nvalue = [4, 8]"] ;
621 -> 623 ;
624 [label="X[5] <= 0.215\nentropy = 0.918\nsamples = 6\nvalue = [4, 2]"] ;
623 -> 624 ;
625 [label="entropy = 0.0\nsamples = 4\nvalue = [4, 0]"] ;
624 -> 625 ;
626 [label="entropy = 0.0\nsamples = 2\nvalue = [0, 2]"] ;
624 -> 626 ;
627 [label="entropy = 0.0\nsamples = 4\nvalue = [0, 6]"] ;
623 -> 627 ;
628 [label="X[4] <= 0.387\nentropy = 0.926\nsamples = 26\nvalue = [14, 27]"] ;
610 -> 628 ;
629 [label="X[2] <= 0.027\nentropy = 0.89\nsamples = 25\nvalue = [12, 27]"] ;
628 -> 629 ;
630 [label="X[5] <= 0.17\nentropy = 0.276\nsamples = 12\nvalue = [1, 20]"] ;
629 -> 630 ;
631 [label="entropy = 0.0\nsamples = 9\nvalue = [0, 17]"] ;
630 -> 631 ;
632 [label="X[4] <= 0.311\nentropy = 0.811\nsamples = 3\nvalue = [1, 3]"] ;
630 -> 632 ;
633 [label="entropy = 0.0\nsamples = 1\nvalue = [1, 0]"] ;
632 -> 633 ;
634 [label="entropy = 0.0\nsamples = 2\nvalue = [0, 3]"] ;
632 -> 634 ;
635 [label="X[4] <= 0.321\nentropy = 0.964\nsamples = 13\nvalue = [11, 7]"] ;
629 -> 635 ;
636 [label="entropy = 0.0\nsamples = 2\nvalue = [6, 0]"] ;
635 -> 636 ;
637 [label="X[5] <= 0.071\nentropy = 0.98\nsamples = 11\nvalue = [5, 7]"] ;
635 -> 637 ;
638 [label="entropy = 0.0\nsamples = 2\nvalue = [2, 0]"] ;
637 -> 638 ;
639 [label="X[6] <= 0.358\nentropy = 0.881\nsamples = 9\nvalue = [3, 7]"] ;
637 -> 639 ;
640 [label="entropy = 0.0\nsamples = 6\nvalue = [0, 7]"] ;
639 -> 640 ;
641 [label="entropy = 0.0\nsamples = 3\nvalue = [3, 0]"] ;
639 -> 641 ;
642 [label="entropy = 0.0\nsamples = 1\nvalue = [2, 0]"] ;
628 -> 642 ;
643 [label="entropy = 0.0\nsamples = 3\nvalue = [6, 0]"] ;
609 -> 643 ;
644 [label="entropy = 0.0\nsamples = 1\nvalue = [1, 0]"] ;
608 -> 644 ;
645 [label="X[3] <= 0.805\nentropy = 0.191\nsamples = 17\nvalue = [1, 33]"] ;
607 -> 645 ;
646 [label="entropy = 0.0\nsamples = 14\nvalue = [0, 31]"] ;
645 -> 646 ;
647 [label="X[2] <= 0.034\nentropy = 0.918\nsamples = 3\nvalue = [1, 2]"] ;
645 -> 647 ;
648 [label="entropy = 0.0\nsamples = 2\nvalue = [0, 2]"] ;
647 -> 648 ;
649 [label="entropy = 0.0\nsamples = 1\nvalue = [1, 0]"] ;
647 -> 649 ;
650 [label="X[3] <= 0.759\nentropy = 0.345\nsamples = 61\nvalue = [6, 87]"] ;
508 -> 650 ;
651 [label="X[6] <= 0.37\nentropy = 0.529\nsamples = 32\nvalue = [6, 44]"] ;
650 -> 651 ;
652 [label="X[1] <= 0.777\nentropy = 0.156\nsamples = 29\nvalue = [1, 43]"] ;
651 -> 652 ;
653 [label="entropy = 0.0\nsamples = 21\nvalue = [0, 34]"] ;
652 -> 653 ;
654 [label="X[4] <= 0.198\nentropy = 0.469\nsamples = 8\nvalue = [1, 9]"] ;
652 -> 654 ;
655 [label="X[3] <= 0.7\nentropy = 0.918\nsamples = 3\nvalue = [1, 2]"] ;
654 -> 655 ;
656 [label="entropy = 0.0\nsamples = 2\nvalue = [0, 2]"] ;
655 -> 656 ;
657 [label="entropy = 0.0\nsamples = 1\nvalue = [1, 0]"] ;
655 -> 657 ;
658 [label="entropy = 0.0\nsamples = 5\nvalue = [0, 7]"] ;
654 -> 658 ;
659 [label="X[5] <= 0.26\nentropy = 0.65\nsamples = 3\nvalue = [5, 1]"] ;
651 -> 659 ;
660 [label="X[1] <= 0.68\nentropy = 1.0\nsamples = 2\nvalue = [1, 1]"] ;
659 -> 660 ;
661 [label="entropy = 0.0\nsamples = 1\nvalue = [0, 1]"] ;
660 -> 661 ;
662 [label="entropy = 0.0\nsamples = 1\nvalue = [1, 0]"] ;
660 -> 662 ;
663 [label="entropy = 0.0\nsamples = 1\nvalue = [4, 0]"] ;
659 -> 663 ;
664 [label="entropy = 0.0\nsamples = 29\nvalue = [0, 43]"] ;
650 -> 664 ;
665 [label="X[3] <= 0.914\nentropy = 0.667\nsamples = 35\nvalue = [8, 38]"] ;
507 -> 665 ;
666 [label="entropy = 0.0\nsamples = 14\nvalue = [0, 17]"] ;
665 -> 666 ;
667 [label="X[5] <= 0.074\nentropy = 0.85\nsamples = 21\nvalue = [8, 21]"] ;
665 -> 667 ;
668 [label="entropy = 0.0\nsamples = 6\nvalue = [0, 9]"] ;
667 -> 668 ;
669 [label="X[6] <= 0.374\nentropy = 0.971\nsamples = 15\nvalue = [8, 12]"] ;
667 -> 669 ;
670 [label="X[1] <= 0.74\nentropy = 0.811\nsamples = 12\nvalue = [4, 12]"] ;
669 -> 670 ;
671 [label="entropy = 0.0\nsamples = 6\nvalue = [0, 8]"] ;
670 -> 671 ;
672 [label="X[4] <= 0.123\nentropy = 1.0\nsamples = 6\nvalue = [4, 4]"] ;
670 -> 672 ;
673 [label="entropy = 0.0\nsamples = 1\nvalue = [2, 0]"] ;
672 -> 673 ;
674 [label="X[4] <= 0.274\nentropy = 0.918\nsamples = 5\nvalue = [2, 4]"] ;
672 -> 674 ;
675 [label="entropy = 0.0\nsamples = 3\nvalue = [0, 4]"] ;
674 -> 675 ;
676 [label="entropy = 0.0\nsamples = 2\nvalue = [2, 0]"] ;
674 -> 676 ;
677 [label="entropy = 0.0\nsamples = 3\nvalue = [4, 0]"] ;
669 -> 677 ;
678 [label="X[3] <= 0.827\nentropy = 0.448\nsamples = 377\nvalue = [57, 553]"] ;
344 -> 678 ;
679 [label="X[5] <= 0.247\nentropy = 0.408\nsamples = 364\nvalue = [48, 540]"] ;
678 -> 679 ;
680 [label="X[3] <= 0.75\nentropy = 0.452\nsamples = 318\nvalue = [48, 458]"] ;
679 -> 680 ;
681 [label="X[5] <= 0.023\nentropy = 0.552\nsamples = 227\nvalue = [47, 320]"] ;
680 -> 681 ;
682 [label="X[4] <= 0.274\nentropy = 0.154\nsamples = 25\nvalue = [1, 44]"] ;
681 -> 682 ;
683 [label="entropy = 0.0\nsamples = 17\nvalue = [0, 32]"] ;
682 -> 683 ;
684 [label="X[1] <= 0.748\nentropy = 0.391\nsamples = 8\nvalue = [1, 12]"] ;
682 -> 684 ;
685 [label="entropy = 0.0\nsamples = 7\nvalue = [0, 12]"] ;
684 -> 685 ;
686 [label="entropy = 0.0\nsamples = 1\nvalue = [1, 0]"] ;
684 -> 686 ;
687 [label="X[6] <= 0.479\nentropy = 0.592\nsamples = 202\nvalue = [46, 276]"] ;
681 -> 687 ;
688 [label="X[4] <= 0.519\nentropy = 0.646\nsamples = 174\nvalue = [45, 228]"] ;
687 -> 688 ;
689 [label="X[2] <= 0.019\nentropy = 0.586\nsamples = 160\nvalue = [35, 214]"] ;
688 -> 689 ;
690 [label="X[2] <= 0.019\nentropy = 0.685\nsamples = 87\nvalue = [25, 112]"] ;
689 -> 690 ;
691 [label="X[4] <= 0.104\nentropy = 0.629\nsamples = 84\nvalue = [21, 112]"] ;
690 -> 691 ;
692 [label="X[6] <= 0.427\nentropy = 0.994\nsamples = 6\nvalue = [6, 5]"] ;
691 -> 692 ;
693 [label="X[6] <= 0.409\nentropy = 0.65\nsamples = 4\nvalue = [1, 5]"] ;
692 -> 693 ;
694 [label="entropy = 0.0\nsamples = 1\nvalue = [1, 0]"] ;
693 -> 694 ;
695 [label="entropy = 0.0\nsamples = 3\nvalue = [0, 5]"] ;
693 -> 695 ;
696 [label="entropy = 0.0\nsamples = 2\nvalue = [5, 0]"] ;
692 -> 696 ;
697 [label="X[4] <= 0.255\nentropy = 0.538\nsamples = 78\nvalue = [15, 107]"] ;
691 -> 697 ;
698 [label="X[1] <= 0.691\nentropy = 0.189\nsamples = 40\nvalue = [2, 67]"] ;
697 -> 698 ;
699 [label="X[6] <= 0.456\nentropy = 0.33\nsamples = 22\nvalue = [2, 31]"] ;
698 -> 699 ;
700 [label="X[2] <= 0.01\nentropy = 0.201\nsamples = 21\nvalue = [1, 31]"] ;
699 -> 700 ;
701 [label="X[3] <= 0.477\nentropy = 0.391\nsamples = 8\nvalue = [1, 12]"] ;
700 -> 701 ;
702 [label="entropy = 0.0\nsamples = 5\nvalue = [0, 9]"] ;
701 -> 702 ;
703 [label="X[6] <= 0.424\nentropy = 0.811\nsamples = 3\nvalue = [1, 3]"] ;
701 -> 703 ;
704 [label="entropy = 0.0\nsamples = 2\nvalue = [0, 3]"] ;
703 -> 704 ;
705 [label="entropy = 0.0\nsamples = 1\nvalue = [1, 0]"] ;
703 -> 705 ;
706 [label="entropy = 0.0\nsamples = 13\nvalue = [0, 19]"] ;
700 -> 706 ;
707 [label="entropy = 0.0\nsamples = 1\nvalue = [1, 0]"] ;
699 -> 707 ;
708 [label="entropy = 0.0\nsamples = 18\nvalue = [0, 36]"] ;
698 -> 708 ;
709 [label="X[3] <= 0.718\nentropy = 0.804\nsamples = 38\nvalue = [13, 40]"] ;
697 -> 709 ;
710 [label="X[6] <= 0.406\nentropy = 0.722\nsamples = 36\nvalue = [10, 40]"] ;
709 -> 710 ;
711 [label="X[0] <= 0.5\nentropy = 0.991\nsamples = 7\nvalue = [5, 4]"] ;
710 -> 711 ;
712 [label="entropy = 0.0\nsamples = 4\nvalue = [0, 4]"] ;
711 -> 712 ;
713 [label="entropy = 0.0\nsamples = 3\nvalue = [5, 0]"] ;
711 -> 713 ;
714 [label="X[4] <= 0.274\nentropy = 0.535\nsamples = 29\nvalue = [5, 36]"] ;
710 -> 714 ;
715 [label="entropy = 0.0\nsamples = 2\nvalue = [2, 0]"] ;
714 -> 715 ;
716 [label="X[4] <= 0.349\nentropy = 0.391\nsamples = 27\nvalue = [3, 36]"] ;
714 -> 716 ;
717 [label="X[4] <= 0.311\nentropy = 0.575\nsamples = 16\nvalue = [3, 19]"] ;
716 -> 717 ;
718 [label="entropy = 0.0\nsamples = 9\nvalue = [0, 12]"] ;
717 -> 718 ;
719 [label="X[0] <= 0.5\nentropy = 0.881\nsamples = 7\nvalue = [3, 7]"] ;
717 -> 719 ;
720 [label="X[1] <= 0.691\nentropy = 0.764\nsamples = 6\nvalue = [2, 7]"] ;
719 -> 720 ;
721 [label="X[2] <= 0.016\nentropy = 0.863\nsamples = 5\nvalue = [2, 5]"] ;
720 -> 721 ;
722 [label="X[5] <= 0.11\nentropy = 0.65\nsamples = 4\nvalue = [1, 5]"] ;
721 -> 722 ;
723 [label="entropy = 0.0\nsamples = 1\nvalue = [1, 0]"] ;
722 -> 723 ;
724 [label="entropy = 0.0\nsamples = 3\nvalue = [0, 5]"] ;
722 -> 724 ;
725 [label="entropy = 0.0\nsamples = 1\nvalue = [1, 0]"] ;
721 -> 725 ;
726 [label="entropy = 0.0\nsamples = 1\nvalue = [0, 2]"] ;
720 -> 726 ;
727 [label="entropy = 0.0\nsamples = 1\nvalue = [1, 0]"] ;
719 -> 727 ;
728 [label="entropy = 0.0\nsamples = 11\nvalue = [0, 17]"] ;
716 -> 728 ;
729 [label="entropy = 0.0\nsamples = 2\nvalue = [3, 0]"] ;
709 -> 729 ;
730 [label="entropy = 0.0\nsamples = 3\nvalue = [4, 0]"] ;
690 -> 730 ;
731 [label="X[6] <= 0.434\nentropy = 0.434\nsamples = 73\nvalue = [10, 102]"] ;
689 -> 731 ;
732 [label="X[5] <= 0.082\nentropy = 0.515\nsamples = 57\nvalue = [10, 77]"] ;
731 -> 732 ;
733 [label="entropy = 0.0\nsamples = 14\nvalue = [0, 19]"] ;
732 -> 733 ;
734 [label="X[1] <= 0.766\nentropy = 0.602\nsamples = 43\nvalue = [10, 58]"] ;
732 -> 734 ;
735 [label="X[5] <= 0.178\nentropy = 0.699\nsamples = 36\nvalue = [10, 43]"] ;
734 -> 735 ;
736 [label="X[1] <= 0.633\nentropy = 0.834\nsamples = 24\nvalue = [9, 25]"] ;
735 -> 736 ;
737 [label="X[6] <= 0.414\nentropy = 0.391\nsamples = 9\nvalue = [1, 12]"] ;
736 -> 737 ;
738 [label="entropy = 0.0\nsamples = 6\nvalue = [0, 10]"] ;
737 -> 738 ;
739 [label="X[6] <= 0.429\nentropy = 0.918\nsamples = 3\nvalue = [1, 2]"] ;
737 -> 739 ;
740 [label="entropy = 0.0\nsamples = 1\nvalue = [1, 0]"] ;
739 -> 740 ;
741 [label="entropy = 0.0\nsamples = 2\nvalue = [0, 2]"] ;
739 -> 741 ;
742 [label="X[5] <= 0.142\nentropy = 0.959\nsamples = 15\nvalue = [8, 13]"] ;
736 -> 742 ;
743 [label="X[6] <= 0.427\nentropy = 0.722\nsamples = 10\nvalue = [3, 12]"] ;
742 -> 743 ;
744 [label="entropy = 0.0\nsamples = 6\nvalue = [0, 8]"] ;
743 -> 744 ;
745 [label="X[6] <= 0.431\nentropy = 0.985\nsamples = 4\nvalue = [3, 4]"] ;
743 -> 745 ;
746 [label="entropy = 0.0\nsamples = 1\nvalue = [2, 0]"] ;
745 -> 746 ;
747 [label="X[4] <= 0.208\nentropy = 0.722\nsamples = 3\nvalue = [1, 4]"] ;
745 -> 747 ;
748 [label="entropy = 0.0\nsamples = 1\nvalue = [1, 0]"] ;
747 -> 748 ;
749 [label="entropy = 0.0\nsamples = 2\nvalue = [0, 4]"] ;
747 -> 749 ;
750 [label="X[4] <= 0.17\nentropy = 0.65\nsamples = 5\nvalue = [5, 1]"] ;
742 -> 750 ;
751 [label="entropy = 0.0\nsamples = 1\nvalue = [0, 1]"] ;
750 -> 751 ;
752 [label="entropy = 0.0\nsamples = 4\nvalue = [5, 0]"] ;
750 -> 752 ;
753 [label="X[6] <= 0.431\nentropy = 0.297\nsamples = 12\nvalue = [1, 18]"] ;
735 -> 753 ;
754 [label="entropy = 0.0\nsamples = 10\nvalue = [0, 16]"] ;
753 -> 754 ;
755 [label="X[5] <= 0.219\nentropy = 0.918\nsamples = 2\nvalue = [1, 2]"] ;
753 -> 755 ;
756 [label="entropy = 0.0\nsamples = 1\nvalue = [0, 2]"] ;
755 -> 756 ;
757 [label="entropy = 0.0\nsamples = 1\nvalue = [1, 0]"] ;
755 -> 757 ;
758 [label="entropy = 0.0\nsamples = 7\nvalue = [0, 15]"] ;
734 -> 758 ;
759 [label="entropy = 0.0\nsamples = 16\nvalue = [0, 25]"] ;
731 -> 759 ;
760 [label="X[1] <= 0.747\nentropy = 0.98\nsamples = 14\nvalue = [10, 14]"] ;
688 -> 760 ;
761 [label="X[2] <= 0.012\nentropy = 0.831\nsamples = 11\nvalue = [5, 14]"] ;
760 -> 761 ;
762 [label="entropy = 0.0\nsamples = 1\nvalue = [3, 0]"] ;
761 -> 762 ;
763 [label="X[5] <= 0.068\nentropy = 0.544\nsamples = 10\nvalue = [2, 14]"] ;
761 -> 763 ;
764 [label="X[1] <= 0.68\nentropy = 1.0\nsamples = 3\nvalue = [2, 2]"] ;
763 -> 764 ;
765 [label="entropy = 0.0\nsamples = 1\nvalue = [1, 0]"] ;
764 -> 765 ;
766 [label="X[2] <= 0.015\nentropy = 0.918\nsamples = 2\nvalue = [1, 2]"] ;
764 -> 766 ;
767 [label="entropy = 0.0\nsamples = 1\nvalue = [0, 2]"] ;
766 -> 767 ;
768 [label="entropy = 0.0\nsamples = 1\nvalue = [1, 0]"] ;
766 -> 768 ;
769 [label="entropy = 0.0\nsamples = 7\nvalue = [0, 12]"] ;
763 -> 769 ;
770 [label="entropy = 0.0\nsamples = 3\nvalue = [5, 0]"] ;
760 -> 770 ;
771 [label="X[3] <= 0.532\nentropy = 0.144\nsamples = 28\nvalue = [1, 48]"] ;
687 -> 771 ;
772 [label="X[3] <= 0.523\nentropy = 0.414\nsamples = 8\nvalue = [1, 11]"] ;
771 -> 772 ;
773 [label="entropy = 0.0\nsamples = 7\nvalue = [0, 11]"] ;
772 -> 773 ;
774 [label="entropy = 0.0\nsamples = 1\nvalue = [1, 0]"] ;
772 -> 774 ;
775 [label="entropy = 0.0\nsamples = 20\nvalue = [0, 37]"] ;
771 -> 775 ;
776 [label="X[2] <= 0.017\nentropy = 0.062\nsamples = 91\nvalue = [1, 138]"] ;
680 -> 776 ;
777 [label="entropy = 0.0\nsamples = 1\nvalue = [1, 0]"] ;
776 -> 777 ;
778 [label="entropy = 0.0\nsamples = 90\nvalue = [0, 138]"] ;
776 -> 778 ;
779 [label="entropy = 0.0\nsamples = 46\nvalue = [0, 82]"] ;
679 -> 779 ;
780 [label="X[4] <= 0.283\nentropy = 0.976\nsamples = 13\nvalue = [9, 13]"] ;
678 -> 780 ;
781 [label="entropy = 0.0\nsamples = 8\nvalue = [0, 12]"] ;
780 -> 781 ;
782 [label="X[4] <= 0.557\nentropy = 0.469\nsamples = 5\nvalue = [9, 1]"] ;
780 -> 782 ;
783 [label="entropy = 0.0\nsamples = 4\nvalue = [9, 0]"] ;
782 -> 783 ;
784 [label="entropy = 0.0\nsamples = 1\nvalue = [0, 1]"] ;
782 -> 784 ;
}